9996 16
the 0.08244662 -0.04725777 -0.008317554 -0.029965786 0.06418629 0.035723347 -0.01176218 0.04605566 -0.054955464 -0.021277685 -0.05923901 -0.0035636239 0.023763224 -0.08316615 -0.069677085 -0.032678146
and 0.09432262 0.038061887 -0.009522716 -0.008729964 0.07091858 0.04062376 -0.07213365 0.064586364 -0.03792004 0.003056708 -0.098550834 0.08341988 0.0016792645 -0.040964313 -0.025033735 -0.08067099
a 0.02996481 0.024954757 0.02209722 0.07073049 0.023467334 0.043578967 -0.0017947536 -0.0035088353 -0.08420908 -0.042500615 -0.084966324 -0.016180271 0.0135262655 -0.055127632 -0.0036255757 -0.03400188
of -0.020714497 0.0029184697 0.12622902 -0.010507446 0.003459348 -0.03851305 -0.024478743 0.020928439 -0.006506589 0.0072338586 -0.03785408 0.019977996 0.07278148 -0.009747198 -0.0030070024 -0.06648692
to 0.00035875104 -0.03673349 0.0024300537 -0.04790179 -0.06273228 -0.0450957 0.05605488 -0.08695746 0.00071024045 0.07748724 0.054015268 -0.041372254 -0.067627296 0.05988809 0.01692094 0.068881616
is 0.041631985 -0.011338273 0.0701548 0.038165286 -0.00048998534 -0.037785824 -0.05015057 -0.005421411 -0.059607055 -0.027898805 -0.016179198 -0.022313917 0.037659254 -0.04887619 -0.01059729 -0.064815216
br -0.024774078 -0.069043264 0.021655148 0.028077839 0.000899226 -0.025767285 0.027811248 0.036212407 0.027201878 0.007844014 -0.032834962 -0.004297434 -0.038579606 0.04409003 -0.087638155 0.060323287
in 0.016361313 -0.0077454653 0.10636593 0.016763508 0.019452328 0.068857506 -0.095571294 0.04557292 -0.058822304 -0.10923033 -0.1209432 0.026264042 0.08624008 -0.13324791 -0.014392174 -0.04735354
it 0.03121694 -0.082195856 0.0024863696 -0.0688378 -0.061065383 -0.044786595 0.0465004 -0.014205579 -0.026850393 0.07624641 0.026333649 -0.028091462 0.025449648 -0.0205764 0.011864962 -0.02131911
i -0.057383437 -0.0509337 0.06342661 -0.041452564 0.010439965 -0.05723489 0.030874131 -0.07134001 0.06559944 0.06809537 0.025232075 -0.08461692 -0.057458106 0.039327946 -0.041893564 0.11137701
this -0.072680645 -0.04780914 0.20766638 -0.0017557448 0.014425721 -0.041651595 0.015669802 0.02143415 0.0038237425 -0.0447138 0.04464657 -0.096133135 -0.013953326 -0.006880499 -0.05806309 0.00211329
that -0.015303301 -0.07278509 0.09801022 0.0075602024 -0.04692926 -0.08595336 0.06677015 -0.05276593 -0.027026813 -0.036313556 0.046044122 -0.023158483 -0.037534475 2.4959678e-05 -0.008803827 0.012563587
was 0.033604488 -0.034231275 0.09569733 0.03738917 -0.013708825 -0.048119072 -0.007306647 0.037380565 0.050353393 -0.008939566 0.013538664 -0.015186448 0.066937365 0.002354046 -0.094360344 0.011785811
as 0.024317706 -0.029002227 0.03381821 -0.01965353 0.03273847 0.011575166 -0.015345182 -0.040580012 -0.04309245 -0.0016495045 0.023416137 0.006408397 -0.0027492486 -0.016314251 -0.060786024 0.028827133
for -0.012288014 -0.049647894 0.037419356 -0.010991441 -0.009097135 -0.033628047 0.007943736 0.011258997 -0.007826309 -0.010288879 0.011564206 -0.03964277 0.027766865 0.010275145 -0.071827285 0.0074088876
with -0.035121374 -0.037505213 0.053856403 -0.024150688 -0.037793517 -0.022471337 0.05301029 -0.043474637 0.011373185 -0.01765153 -0.03623846 0.035398897 0.04650385 0.03473745 -0.012224447 -0.028171094
movie -0.083976716 -0.01869045 0.00013866439 -0.097449996 0.03385783 -0.010442029 0.020730348 -0.03348978 0.04059439 -0.0026193757 0.045081947 -0.086288385 0.017203335 0.0325485 -0.015105786 0.085106105
but 0.058093835 0.015715497 0.019719595 0.009694004 0.08007675 0.08504832 -0.0899376 0.066664785 -0.06884554 -0.038617995 -0.10970807 0.071316086 0.045603964 -0.069498524 0.0065259114 -0.09428273
film 0.0661857 0.08125918 0.052221857 0.047816873 0.0325756 0.016590282 0.032188043 0.05616068 -0.09850031 0.009959365 -0.054875392 -0.01750808 -0.0013745765 -0.0038647233 -0.015350733 -0.01194122
on 0.045818616 0.083050326 0.0048603024 0.07335282 0.033827193 0.0059478306 -0.0035034707 0.048227638 -0.09295199 -0.08052127 -0.04703648 -0.0038558645 0.021855768 -0.023901088 0.014667219 -0.07534765
not -0.014453279 -0.053405076 0.15903932 0.016862947 -0.0056807883 -0.067407206 -0.016440263 0.034105957 0.03664381 -0.044549637 -0.022920903 -0.03866284 0.0058565647 0.0086252885 -0.031159533 -0.019384725
you 0.042018402 0.05569135 -0.0567854 0.039755724 0.010943884 0.08401425 -0.045599088 0.016656557 -0.041347038 -0.046842624 -0.05986879 0.09889661 0.004206275 -0.06545044 0.06549487 -0.049644884
are 0.029236393 0.015866637 -0.018414954 0.0059848377 -0.031188248 -0.020500036 0.089370534 -0.05041347 0.07365257 0.043243635 -0.016286358 -0.072305016 -0.08541231 0.036037974 -0.040248077 -0.0017294066
his 0.018108511 0.03176596 0.041484725 0.048424922 0.047611497 0.012978174 -0.012012809 0.08061711 -0.043052576 -0.057709556 -0.09280525 -0.02042424 0.098284386 -0.09499698 -0.00967578 -0.055302154
have -0.0450682 -0.031010557 0.03610236 -0.03617761 -0.029265271 0.001384096 -0.0018829745 -0.0686255 0.033238027 0.05175246 -0.030562963 -0.0033462034 0.010818854 0.00015778506 -0.0025776613 0.038269293
he 0.06554463 0.03500608 0.15197532 -0.028039971 0.050411563 0.06704233 -0.001755087 0.00018810382 -0.05506502 -0.10194338 -0.048193857 0.0029666962 0.09165457 -0.084164076 -0.084185414 -0.018596753
be -0.04134448 -0.0064906245 0.11556722 -0.014883438 -0.026198708 -0.041651405 -0.03047325 0.026296658 0.0016685097 0.033887062 0.025378166 -0.046364546 0.02594596 -0.024447346 0.01517446 0.028200086
one 0.06419659 -0.037324365 0.04071731 -0.020104373 0.06970574 -0.004029017 -0.04192403 0.02648962 -0.0038048804 -0.06496994 0.002771101 0.005892915 0.059565008 -0.039699167 0.009542748 -0.04450947
all 0.0756393 0.028264849 0.025131278 0.040844046 0.0929943 0.019004878 -0.0146694025 0.07801605 -0.07075121 -0.030345004 -0.08308348 0.029280841 0.030518541 -0.060731035 0.00014751425 -0.071802594
at 0.010416993 0.01861785 -0.0010893451 -0.040997885 -0.023830721 -0.017684894 -0.026279662 0.04438899 0.048909944 0.05941263 -0.006456363 -0.08256216 -0.018610334 0.0043040714 -0.02597117 0.018261118
by -0.0382808 0.011190931 -0.0087653985 0.0021411208 -0.013056914 -0.016499948 0.022041574 0.017901083 -0.014867091 0.01826466 -0.05769368 -0.0033481875 0.015749631 0.0062945224 0.01607835 -0.010045134
an -0.008155839 -0.016799849 0.022955004 -0.014937488 0.08439446 -0.03293345 0.0068456675 0.007957099 0.0070776134 -0.05088948 -0.034720086 0.0076067075 0.02911684 -0.077167355 -0.054224595 -0.0103323
they -0.029127128 -0.04464416 -0.016138399 -0.12020257 -0.059459474 -0.051018726 0.12570244 -0.08097318 0.044876598 0.12617724 0.045706846 -0.09182614 -0.09162256 0.11294711 -0.020940173 0.072273076
who -0.0033319243 0.021032108 0.05223994 0.034748614 0.07745865 0.04595698 -0.07409866 0.048830472 -0.094610654 -0.076198086 -0.019357739 0.033084452 0.041965727 -0.07248645 -0.017505122 -0.0076427963
so -0.0038453434 -0.0638336 -0.0053619267 -0.016186843 -0.03897488 0.002196447 0.017864976 -0.045629498 0.07530312 0.043620978 0.035450876 0.018639628 -0.021434516 0.11897794 -0.041354477 0.11634069
from -0.015821105 0.05640783 0.12525573 -0.0023293898 0.0037590002 -0.049595904 -0.023827001 0.020226983 -0.030420648 0.026634999 0.015570206 -0.01226494 0.06616295 -0.026002826 -0.02289112 0.018677766
like -0.024005085 -0.008387085 -0.033260275 -0.044343993 -0.02064615 0.026079087 0.040102407 0.0073050917 -0.04738826 0.02294926 -0.034871154 0.015249974 0.04916221 -0.07344667 -0.024169873 0.03096888
her -0.02318253 -0.064197995 -0.0662887 -0.0076893624 0.019023621 -0.04886739 0.017282797 -0.038122643 0.017061606 0.03258768 -0.025131363 -0.037769243 0.02334948 0.03660358 -0.056996208 0.055399083
or -0.023876816 -0.10315919 0.0767957 0.0029756466 -0.038468067 -0.0942243 0.011424223 -0.07429109 0.051922675 0.053739358 0.0006359827 0.014512387 0.015273019 0.031980775 0.013218082 0.061083738
just -0.09482242 -0.09086494 -0.03331447 -0.07610529 -0.06388301 -0.04514046 0.0077485163 -0.015404119 0.029557833 0.10937609 0.09349864 -0.023744265 -0.012600608 0.094726995 -0.022585811 0.05533706
about -0.10841453 -0.035355166 0.038257115 -0.060266748 0.011075813 -0.071356356 0.01050987 0.011206988 0.08930376 0.044646595 0.0027167045 -0.00024557303 0.015179775 0.07793015 -0.06757615 0.040974773
it's -0.05410846 0.030080076 0.0823852 0.017392918 0.067428544 -0.016723895 -0.03816283 0.018339474 -0.008269455 -0.019915294 -0.014380246 0.0065775784 0.008681938 0.05391992 0.030056097 0.011901894
out -0.14639623 -0.09926959 0.06577949 -0.06699219 -0.015157552 -0.09526128 0.061553665 -0.06892778 0.09073707 0.029024249 0.13294308 -0.16134277 -0.031013096 0.16234837 -0.07540367 0.12552166
has -0.055376522 -0.08123904 0.024607085 -0.014155432 -0.024718262 -0.03139228 0.070879735 -0.019208262 0.07131674 0.07266577 0.07606273 -0.03852021 -0.0704135 0.06344787 0.015279677 0.09837269
if 0.121841714 0.08723902 -0.069404334 0.014289752 0.048699014 0.0640334 -0.061497677 0.09019264 -0.09872253 -0.0071181804 -0.110530235 0.060369287 0.09578625 -0.11426125 0.069930375 -0.100361444
some -0.07004298 -0.13691483 0.102567956 -0.06152854 -0.09050558 -0.08616337 0.0934199 -0.1288307 0.13879097 0.022119278 0.14351715 -0.12906669 -0.08140373 0.10730133 -0.10154297 0.14468367
there -0.040887475 -0.006500176 0.08798173 -0.020821756 -0.03409355 -0.06764062 0.0042382865 -0.054640297 0.028014129 0.0014545668 0.08727793 -0.040133674 0.016734548 0.10862812 -0.023907498 0.10469795
what -0.03786164 -0.04376008 0.02643521 0.011796986 0.08536364 0.0007833639 -0.04462145 -0.009532711 0.033693507 -0.049086116 0.0043231035 -0.01038331 0.075426325 0.022370847 -0.0867681 -0.024275731
good 0.0172446 -0.0031378525 -0.06437796 0.02069638 0.055507224 -0.04409507 -0.0811071 0.059036702 -0.020473573 -0.020354781 -0.012489339 -0.033745572 0.011546313 -0.0097138155 0.0032296393 -0.012562512
more -0.074499205 -0.04157783 -0.018188262 -0.037289597 -0.0028488152 -0.028729761 0.019498246 -0.000892213 0.0387038 0.053010948 0.024908006 -0.035602245 -0.05282616 0.1007746 -0.037234385 0.066186264
when -0.052803747 -0.06153699 0.035794754 -0.02612259 -0.08287668 -0.039302643 0.071576 0.005334662 0.095669195 0.03376995 0.027456282 -0.036703683 -0.026443666 0.035359383 -0.0315105 0.058178417
very 0.075698376 0.021449605 0.082545765 0.007833995 0.0058386074 0.027054647 -0.017583607 0.023703082 0.003344041 -0.053604618 0.004659302 0.031093476 0.10707564 -0.055324614 -0.051607147 -0.069780305
up -0.040886898 -0.070916705 -0.04510418 -0.025377467 -0.06498489 -0.047422186 0.06375774 -0.019563317 -0.011725031 -0.0336002 0.016489942 0.016816622 -0.032588005 -0.021849938 -0.021074634 -0.04215077
no -0.098386206 -0.03804377 0.058674827 -0.03887243 -0.056358848 -0.06739707 0.009657705 -0.07519176 0.058386236 0.06275848 0.0653496 -0.09567761 -0.09466135 0.072025165 0.02347239 0.09783902
time -0.07243108 -0.0038389056 0.020199813 0.014475405 0.004536825 -0.06882374 0.042145964 0.018836733 0.04147409 -0.033332247 0.054490045 -0.12553754 0.00040895733 0.09117938 -0.041766707 0.030179325
she 0.0554117 -0.005330325 -0.004854719 0.00015627462 0.0554804 0.039991204 -0.048484065 0.028340101 0.003214595 -0.03929322 -0.009917787 0.060335945 -0.013069328 -0.05382654 0.06460013 -0.015079074
even -0.03768776 -0.0027639857 0.09886424 -0.015888209 -0.024189329 -0.06966766 0.03426261 0.030682296 0.014155396 -0.02359498 0.014701868 0.002198117 0.011384499 -0.0011204662 -0.05962022 0.038502514
my 0.024078883 0.017949512 -0.04485022 -0.014378291 0.05791808 0.0709253 0.022460414 0.0114261415 -0.08226765 0.018546898 -0.066608004 0.11776305 -0.034356624 -0.01889434 0.015303083 -0.102634445
would 0.08081962 -0.019945716 0.037175294 -0.01950218 0.04758392 0.008283623 -0.01956676 0.036037732 -0.029002963 0.01392687 -0.05532129 0.054102987 0.048301663 -0.010065817 0.05159124 -0.00416422
which 0.03142987 0.047143325 0.060719203 0.036058206 0.03839775 0.009465509 -0.014210306 0.043030493 -0.009001794 -0.004329423 -0.036610156 -0.039459433 0.053260725 -0.050741136 -0.02932081 -0.046246145
only -0.072459616 -0.10146778 -0.019155288 -0.12780744 -0.083484866 -0.021065662 0.06557621 -0.087309025 0.028129796 0.02122667 0.081414655 -0.043971755 -0.0394453 0.036211297 -0.021067077 0.026566148
story 0.018645197 -0.040961344 0.046842758 -0.06232399 -0.011636981 0.033696488 -0.0074667744 -0.0116244005 -0.009427088 0.011420847 0.04229519 -0.029744618 0.026226463 -0.03223636 0.021180576 -0.04095559
really -0.048239235 0.0072107324 0.107179694 0.01225593 0.03871106 -0.01743336 0.0033537012 -0.01974356 0.04206354 -0.045062654 -0.014017206 -0.0396979 0.03185397 0.0524198 -0.0038885917 0.042513583
see 0.012360664 0.07354621 -0.050365448 0.046690915 -0.02153738 0.08080211 -0.046561062 0.022118708 -0.09040559 -0.032201096 -0.09726495 0.024284925 0.046008077 -0.0004705828 0.035602994 -0.023810854
their 0.015042593 0.04479314 -0.0675275 0.01093176 -0.056371357 0.032660373 0.08775265 0.00017766347 -0.04645638 0.07225948 -0.037121076 -0.009132048 -0.06169916 0.032712776 0.04830599 -0.017862432
had 0.043962877 0.042691026 0.008978121 -0.020364085 -0.08407074 0.028476343 0.019321604 -0.06800789 0.0035614243 -0.0032395502 0.036834817 0.033307534 -0.05527121 0.015524349 0.030554999 -0.040824115
can -0.026400318 -0.020525867 0.017863195 0.076911025 -0.0030221245 0.04152641 0.013788472 -0.00863072 0.026145345 0.006769835 -0.009096868 -0.05215182 -0.012781493 -0.013899638 -0.01391456 -0.04400781
were -0.024795325 -0.08330848 -0.009377851 -0.07304999 -0.064768985 -0.10320765 -0.0013187389 -0.07005836 0.037292007 0.094908565 0.08946814 -0.03963585 -0.0591079 0.059317797 -0.088187985 0.04721277
me -0.073075496 -0.03229053 0.12713999 -0.044018075 -0.030610101 -0.021281011 0.0793417 -0.006759922 0.07271077 0.035221532 0.06976537 -0.10086872 0.014364137 0.047286585 0.0050762547 0.08654578
well 0.12472442 0.06943298 -0.07795126 0.1074396 0.054398276 0.14441624 -0.10251643 0.14042749 -0.1632718 -0.055899926 -0.20220315 0.11865671 0.101860166 -0.17010924 0.08973586 -0.13476874
than -0.009037223 0.02567442 0.0848416 0.0017787253 0.04372659 0.019331615 -0.010481642 -0.010616634 0.061110582 0.008909072 -0.031491 -0.009314186 -0.030675342 -0.018144988 -0.049342763 0.015200562
we 0.04327566 0.03008486 -0.022200666 0.054604918 0.08007212 0.002973422 -0.06726057 0.059852585 -0.10326185 -0.027584992 -0.07842922 0.030362928 0.10508799 -0.12173004 0.04570022 -0.11206223
much 0.03787444 0.017182885 0.029846461 -0.0054215 0.049710438 0.053318832 -0.009701586 0.041735724 -0.05494245 0.0068386127 -0.097215645 0.020428104 0.02185514 -0.063909225 0.07671904 0.00012722847
been -0.04353747 -0.009651212 -0.0065546483 -0.065249436 -0.027103169 0.00022938306 -0.03669388 -0.022983026 -0.011283557 -0.04642364 -0.024880692 0.0066523203 0.03667796 -0.000288637 -0.10483188 0.016735211
bad -0.20568101 -0.18983196 0.09088384 -0.14350851 -0.12164466 -0.24041311 0.15273425 -0.124417916 0.14371748 0.14797814 0.17151138 -0.12029592 -0.18297514 0.18657403 -0.12064633 0.21131355
get -0.055923924 -0.07535772 -0.02604481 -0.06792756 -0.075130224 -0.04347851 0.11248681 -0.069642216 0.0846236 0.13089776 0.07578609 -0.048119437 -0.04531448 0.03662459 0.014226177 0.008853762
will 0.0027005328 -0.0016323756 0.037329085 0.026145771 0.026370026 0.010417044 -0.006491106 0.009522548 -0.05714614 -0.06219431 -0.06381404 -0.0062683276 0.018241264 0.01551329 -0.08759996 -0.037163273
do 0.053558037 0.033331953 0.0630028 0.027083265 -0.0021119043 0.031957813 -0.0581886 0.015251838 -0.07668872 -0.05062242 -0.09194476 0.042286962 0.033276226 -0.0901159 0.007052635 -0.06848523
also 0.10153265 0.11289165 -0.030997444 0.049236298 -0.011058257 0.067976095 -0.045420967 0.041811176 -0.12460543 0.003992328 -0.039227467 0.077694714 0.013616345 -0.08247406 0.06682835 -0.1218299
into -0.0767311 -0.074199066 0.01360487 0.009483863 -0.027402297 -0.08247884 0.058940362 -0.039296832 0.003001488 0.0048176437 0.057071984 -0.027370214 -0.043843128 0.07827953 -0.0059069563 0.011389004
people -0.033705465 -0.027537575 0.0027868855 -0.11725458 -0.026778024 -0.016420322 0.070390284 -0.030388651 0.0319747 -0.004959896 0.031462327 -0.06966012 -0.047441512 -0.019476796 -0.07474304 0.017542463
other 0.046605192 0.039453126 0.020937514 0.020959908 0.08803003 0.0631376 -0.0929544 0.022132862 -0.0006051374 -0.07796701 -0.07141517 0.05732152 0.09809363 -0.07272271 -0.052461345 -0.09208644
first -0.009689429 -0.039657414 0.035614505 0.022692714 -0.022453653 -0.019059012 -0.0253716 -0.000114335155 -0.025557742 0.028997919 -0.042654194 -0.020140802 0.05540689 -0.06407665 -0.046296127 0.025205659
great 0.036197376 0.019928996 0.10857166 0.08078272 0.07847116 0.0728034 -0.038547292 -0.0036790746 -0.043721583 -0.05439916 -0.015043071 0.0012239785 0.060593 -0.108457826 0.06831758 -0.061363623
because -0.0648649 0.013835413 -0.033589084 -0.013854047 -0.037097484 -0.082630634 0.045312226 -0.09740746 0.05651973 0.10445036 0.12610184 -0.07885809 -0.039682105 0.11530836 -0.05013106 0.10434488
how -0.038870938 -0.029793197 0.042731546 -0.034551736 -0.0018064921 -0.02374571 0.07425203 -0.026686508 0.03182805 0.058986217 0.068940066 0.019627618 -0.010682752 0.07850809 -0.05803319 0.029461524
him 0.070321664 0.0029161316 -0.041288503 0.008291364 0.078825586 0.10601898 -0.068947494 0.031500466 -0.06752816 -0.07024011 -0.08609748 0.05275139 0.03616849 -0.07934351 0.052271362 -0.10971657
most 0.111453265 0.065185435 0.10024253 -0.0031895011 0.0074431687 0.053031903 -0.034491915 0.10901537 -0.060155455 -0.06530268 -0.05784009 0.101379335 0.008472017 -0.11669535 -0.010717352 -0.14608613
don't -0.00038891705 -0.07949028 0.04121 -0.0027588038 0.0051740124 -0.08666037 0.07148472 -0.03658227 0.039414134 0.048330862 0.03141675 -0.060425974 -0.044952016 0.029223323 0.023428654 0.0691387
made 0.05561043 0.000479471 0.10379053 0.04267188 0.0018996451 0.033227503 0.0032582227 0.10079651 0.0006117562 0.007157857 -0.06432458 0.006794941 0.08013002 -0.065946795 -0.050742067 -0.05315953
its 0.08032992 0.09459878 -0.0068216464 0.041554563 0.062842816 0.13230628 -0.076905854 0.120911404 -0.14468248 -0.08653318 -0.11318899 0.07133133 0.12529667 -0.16301063 0.11957151 -0.118114136
then 0.015674543 0.088063054 0.10219053 0.06157121 0.046774805 0.040624913 0.003961888 -0.0031163278 -0.06407532 -0.05081103 -0.07176285 -0.017220644 0.01235411 -0.07179803 0.0026071675 -0.016984398
way -0.02467021 -0.09802212 0.071623705 -0.020423839 -0.028682878 -0.02954614 0.029366165 -0.04475279 0.055377092 0.010233719 0.09559068 -0.024950005 0.008352356 0.056065902 -0.06271718 0.03233131
make -0.027831914 -0.07528787 0.04474918 -0.064182594 0.030953716 -0.09620465 -0.010403987 -0.03808186 0.07998284 0.044768114 0.06377137 -0.10329045 -0.025079876 0.043420933 -0.094727814 0.013742257
them 0.01843413 0.0040219123 -0.048844565 -0.0062678787 0.06016127 0.07892496 -0.076358795 0.012167501 -0.06559846 0.009367246 -0.09287875 0.06974876 0.037960973 -0.06977532 0.04026741 -0.10411457
too 0.05872108 0.019436825 0.005516813 0.027696913 0.025467446 -0.0054899915 -0.026030423 0.07414278 -0.009050993 -0.022780089 -0.05049173 0.012131161 0.025038805 -0.06548756 -0.021918189 0.011492267
could -0.05606312 -0.06098033 0.0013622881 -0.1435165 -0.03246802 -0.037901282 0.08292284 -0.07661349 0.066053644 0.09901136 0.053120844 -0.016277777 -0.05992536 0.06521184 0.0065475963 0.06994889
any -0.029435461 -0.039565053 0.12881018 -0.05763371 0.031847827 -0.01277797 0.024801694 -0.040482257 0.013856803 -0.020761836 0.04613181 -0.09806948 -0.013731141 0.040352765 -0.03989988 0.0719197
movies 0.021169392 -0.0155437365 0.094766736 0.06538408 0.1010661 0.011882291 -0.017554343 0.06329871 -0.0034086376 -0.04750311 -0.06497641 0.0068420754 -0.008494514 0.00944422 -0.04299078 -0.018566875
after -0.03870236 -0.047389627 0.030820513 -0.01935964 -0.057416577 0.031641882 -0.02112938 -0.00324569 0.06555164 0.029449452 -0.024703939 -0.0027625847 -0.039726958 -0.025232868 -0.08144595 0.024124272
think -0.001341671 0.01450877 0.1104957 -0.016617244 0.057509556 0.018424913 -0.04603157 0.014673171 0.005556504 0.012109156 -0.036577977 -0.0705319 -0.01841137 -0.04955569 -0.05956821 0.038576547
characters 0.07859292 0.037132345 -0.003912266 0.061315514 0.014666133 0.11900966 -0.014240348 -0.0051713954 -0.10857842 0.02739241 -0.10558417 0.08809773 0.060498152 -0.06252912 0.06730642 -0.101584695
watch -0.019959558 -0.018613921 -0.0044255806 -0.01610245 0.034615114 0.06305531 0.052668408 -0.011342839 0.013811611 0.0283752 -0.038581006 0.09138844 -0.030916056 0.043776967 0.116820715 -0.055414267
two -0.013587504 -0.0063967486 0.10050893 0.021294896 0.004965567 -0.004313179 0.04094251 -0.004260895 0.017474424 0.029357418 -0.005217217 0.038368523 -0.0011893878 0.025710413 0.010511093 -0.05141318
films 0.07010532 -0.017919134 0.12611644 0.047281273 0.042100042 0.07840551 -0.031439975 0.030806847 -0.11632572 -0.0300165 -0.09589421 0.02322669 0.015197026 -0.073123835 0.0003986852 -0.078300364
character 0.012645771 -0.055601645 -0.009376346 0.00048810442 0.0068670567 -0.0019142092 -0.0074805957 -0.024225326 0.011692226 -0.026539886 0.003353231 -0.024150508 0.014973392 -0.016517729 0.02413509 -0.036578156
seen -0.004959262 -0.07363142 -0.0020196366 -0.038505588 -0.0020864452 -0.06734645 -0.010530514 0.015186528 -0.010149647 -0.013624989 0.019299485 -0.026994735 0.03257848 0.061577916 -0.052219253 0.031610582
many 0.056098685 0.045304984 0.043694198 0.082491554 0.0020929887 0.007354093 -0.012895641 -0.002665467 -0.0440212 -0.036360703 -0.030598173 0.022617053 0.05062062 -0.019326178 -0.008128439 -0.035968997
being -0.084879786 -0.09594917 0.13483685 0.054685567 -0.01487299 -0.043521054 -0.02940031 -0.032076057 0.089512125 -0.026771953 0.092215724 -0.093028136 -0.0031377105 0.06758377 -0.0599696 0.072666906
life 0.07152183 0.092277214 -0.033249438 0.009767073 -0.01677681 0.01371735 -0.03152939 -0.001999259 -0.09086086 -0.07107344 -0.04205087 0.041298077 -0.027731149 -0.005728004 0.068518326 -0.092845365
plot -0.11186017 -0.09125737 0.02738393 -0.050495207 -0.04564189 -0.038282678 0.08034116 -0.044658184 0.040385243 0.11192295 0.08971853 -0.08987945 -0.022917535 0.068124525 -0.06224438 0.082283325
never 0.0007576713 -0.009628914 0.07447504 0.0015909916 0.011139628 -0.053694453 -0.026707182 -0.05438252 0.07641588 -0.02924905 0.0012340763 -0.041557256 -0.012085419 0.047283355 -0.05976731 0.044744954
acting -0.09213709 -0.086921126 0.10309947 0.021973936 0.014679532 -0.085195266 -0.03646966 -0.02286112 -0.021317096 0.009840015 0.0558329 -0.0053520966 0.026934931 -0.028609008 -0.033952523 0.036970578
little 0.1081609 0.10549155 0.06668154 0.08275617 0.07233992 0.12754454 -0.026563361 0.08169579 -0.053814586 -0.024585066 -0.06453232 0.03381897 0.01260402 -0.06732421 0.073484205 -0.119025305
best 0.16331618 0.11769885 0.038718082 0.1205591 0.08965318 0.10215339 -0.13273996 0.0708587 -0.13105752 -0.08416111 -0.11931923 0.14817539 0.08648145 -0.1780969 0.12532483 -0.17477939
love 0.040419098 0.06921018 0.03284427 0.013135233 -0.009822027 0.034083985 -0.016482538 -0.012147566 -0.018013611 -0.033447832 -0.08071269 0.00025108753 0.024438856 -0.048955366 -0.007721415 -0.06297148
over -0.05048113 -0.030715832 0.0016293761 -0.08200922 -0.010574792 -0.055540938 0.04807797 -0.08578312 0.059887003 0.11016983 0.037614547 0.03491653 -0.014196124 0.038144607 0.06991345 0.0046848394
where -0.081341214 -0.014706907 0.0041222777 0.032224145 -0.029742334 -0.074334845 -0.021908589 0.0011323805 0.009191162 0.020104207 0.03608104 -0.10753856 -0.059979726 -0.019215414 -0.08919979 0.02449511
did -0.0219971 -0.014415563 0.0007914658 -0.026026139 0.052737426 0.019364243 0.033634692 0.04275127 -0.008433803 0.05484188 0.03945497 0.022626784 0.032368973 -0.048481863 -0.017079694 -0.036596507
show 0.06563941 0.086067654 0.0020341694 0.061445728 0.009948782 0.06870543 -0.0034318622 0.01796016 -0.0389119 -0.018893953 -0.010410292 0.07405181 0.052422635 -0.07413062 0.025143275 -0.019968567
know -0.06786759 -0.04673498 -0.018218605 -0.06125516 -0.046707444 -0.112571955 0.003917742 -0.060405336 0.04025111 0.07117938 0.046538346 -0.031350132 -0.01764057 0.0593496 -0.01925553 0.03246431
off -0.0073398566 0.0103668505 0.10729268 0.080051936 -0.037402183 -0.02213019 -0.024046412 -0.03198431 -0.035049777 0.004320763 -0.049030945 0.011178094 -0.079449646 -0.024984896 -0.056750234 0.012097926
ever -0.0082721105 -0.0018666903 0.13839532 -0.038329434 -0.019448152 0.017716631 0.057727706 -0.04142557 -0.009396858 0.07523079 -0.01739477 0.03634856 -0.03300837 0.07603661 -0.036071237 0.05844463
does 0.06202339 0.071836784 0.06779243 0.10230234 0.0816664 0.06642158 -0.028283259 0.09885538 -0.07363748 -0.09515828 -0.09482152 -0.027180322 0.08582047 -0.079422735 -0.04644664 -0.0607807
better -0.024206338 -0.06324116 0.088407025 0.038947605 0.00024235512 0.03206036 -0.024582393 0.039276365 -0.04992793 -0.035240304 -0.033581298 -0.008589622 0.11285602 -0.07989257 -0.08391723 -0.045820694
your -0.06366764 -0.035854325 0.06435102 -0.015127807 0.01754974 0.0041959947 -0.045727737 -0.014088302 0.017799193 -0.041865487 0.03869697 -0.036442682 0.018037977 0.032455042 -0.007123601 -0.023467455
end 0.034763347 0.052335918 0.12873946 -0.00017485779 0.05243218 0.03973775 0.014102076 0.086951986 0.012171385 0.0023059777 -0.048733667 -0.045349866 0.024764996 0.006055419 -0.07589635 -0.08521827
still 0.08367967 0.08311717 0.11902899 0.110940725 0.08356768 0.120769784 -0.106618315 0.15599287 -0.10996104 -0.14024109 -0.08928899 0.052800573 0.12956722 -0.16629416 0.043534588 -0.071515836
man 0.04552755 0.051725037 0.019393392 0.022149475 0.076977484 0.07693953 -0.14355421 0.05704954 -0.087429106 -0.070699066 -0.0887374 0.103774674 0.0942138 -0.100224905 0.027464146 -0.08946968
here -0.06506351 -0.07648766 0.09357427 -0.016293256 -0.044505954 -0.10452251 0.012376195 -0.09452249 0.12773652 0.07789816 0.09644527 -0.1070084 -0.033557273 0.14894545 -0.040909205 0.07742733
these 0.044868067 0.09517554 0.075999945 0.08461653 -0.005137917 0.016172219 -0.028748602 -0.018778466 0.007847269 -0.09327254 -0.054462884 0.03297005 0.0816105 -0.03953595 -0.0093417335 -0.035412632
say -0.02643815 -0.08874097 0.1419343 0.023283493 0.07749238 -0.06987247 0.05182174 -0.02693544 0.039749067 -0.016153196 0.066476315 -0.07853189 -0.006411002 0.08614926 -0.089918 0.032897428
scene -0.06566818 -0.019460397 0.094068885 0.0018373783 -0.04434209 -0.06083068 0.004674905 -0.039264962 -0.01228149 0.02181857 0.066786945 -0.03669577 -0.062735066 0.054881293 -0.10369422 -0.016379943
while 0.029873148 0.035341423 0.04006378 0.058949295 -0.02365102 0.035987247 0.04413838 -0.06581452 -0.032145467 0.03662846 0.040780324 0.042304955 -0.06618912 -0.018537268 0.0786993 -0.029628366
why -0.0038171292 -0.02186867 0.08098566 0.019670866 -0.063444115 -0.016859809 0.0065594385 -0.03244871 0.04486299 0.07226737 0.05566138 -0.026731677 -0.073611446 -0.00010837183 -0.015353872 -0.0031183166
scenes 0.039957035 0.087942086 0.07134078 0.11471636 0.011040087 0.09206131 -0.071911365 0.069855094 -0.018745203 -0.07471204 -0.046615504 0.015134688 0.035715815 -0.051148873 -0.02423762 -0.05259481
go -0.10268861 -0.10010135 0.0106214285 -0.016726648 -0.043064892 -0.036843125 0.10177058 -0.096613064 0.071090735 0.041367978 0.027624404 -0.049603637 -0.04357519 0.06570822 -0.040930357 0.079227775
such -0.06549067 -0.07033134 0.017434854 -0.06554718 -0.030367706 -0.014882448 0.05306544 -0.010181282 0.01843124 0.040204346 -0.0037010058 -0.0814317 -0.043465897 0.023729311 -0.12267099 -0.00772088
something -0.035249535 -0.06792232 0.07133266 0.018412068 -0.0038581747 -0.017936535 -0.012937884 -0.04269197 0.06463458 0.005515149 0.014936612 -0.03306922 0.04731116 -0.0002644441 -0.09654914 0.074563995
through 0.008924153 0.06407673 -0.05807484 -0.018088032 -0.030834628 0.09363934 -0.05782679 0.018956948 -0.014288686 0.049975194 0.007595378 -0.0013763467 -0.056866493 -0.0051510264 0.062450778 -0.042475555
should -0.084698744 -0.07677566 0.008510791 -0.052883558 -0.030839166 -0.11170984 0.11183172 -0.064993456 0.07427746 0.07747258 0.1228028 -0.011878787 -0.05397162 0.110646226 -0.044714596 0.13997689
back 0.083916105 0.014920713 0.14588772 0.06932187 0.090525426 0.04822704 -0.020163288 0.050419506 -0.091353 -0.07776919 -0.080033176 0.016146975 0.09190887 -0.027866738 -0.023969203 -0.08554132
i'm -0.09984545 -0.13598788 -0.0074706865 -0.0954712 -0.048305046 -0.122240074 0.07133587 -0.04555172 0.05531246 0.03943133 0.10657762 -0.11007443 -0.09146938 0.0663228 -0.0732043 0.10949944
real 0.08665829 -0.005336224 -0.0055745775 0.049842436 -0.043738097 0.071946375 -0.036095336 0.00067473814 -0.006620972 0.044104878 -0.02758487 0.07334951 -0.045060758 0.01702281 0.04208061 -0.046446055
those 0.008649219 -0.04153456 -0.041707896 -0.022650464 -0.027832692 -0.043481592 0.0053241886 -0.005173644 -0.0334237 -0.04780847 0.017329928 0.0144046955 0.044835616 0.025082614 0.040289983 0.0165626
watching 0.05296471 -0.0038387957 0.17588294 0.039790384 0.026738076 0.037645366 -0.017077217 0.07175149 -0.02050564 -0.09041934 -0.038457993 0.014495711 0.058803145 -0.027407238 -0.068643644 -0.015648006
now 0.11670668 0.00468596 0.03660683 0.060766216 -0.010921038 0.12202794 -0.00062500476 -0.011251274 -0.059802603 0.0038814975 -0.07162345 0.057973772 -0.007230263 -0.11985445 0.038077697 -0.06269528
though 0.02319117 0.029040925 0.10771812 0.10426972 0.0765662 0.06202298 -0.09081144 0.09668325 -0.08389387 -0.14057054 -0.062315337 0.0038090004 0.14768523 -0.121088766 -0.040029395 -0.14746739
doesn't -0.040868875 -0.00010112369 0.015854372 -0.0010283916 0.031150838 0.015376749 -0.0075912275 0.060842704 -0.030311272 -0.024115942 -0.02819445 -0.043700896 0.013263913 -0.003405753 -0.0011195112 -0.031102052
years 0.07952333 0.036472842 -0.037567966 0.06849281 -0.046973087 0.016194692 -0.008833754 0.061733127 -0.086433016 -0.032281518 -0.03863757 0.04688252 -0.01680613 -0.09180553 -0.010183255 -0.04605728
old 0.012331818 0.027851954 0.039295387 0.08110533 -0.004577063 0.045612473 0.021131858 -0.005260985 0.013914378 -0.004636558 0.011132014 -0.0049565644 -0.0057351235 0.0007191929 0.0044316393 -0.04474464
thing -0.036921572 -0.06969956 -0.032092586 -0.08804676 -0.02713656 -0.03669014 0.052030385 -0.0888172 0.14156555 0.074494146 0.10954958 -0.07646398 -0.06654061 0.113863125 -0.092208885 0.06892552
actors 0.04642713 0.040145256 0.08085144 0.045100402 0.015716212 0.05315235 -0.046588816 0.0908543 -0.011136143 -0.09878606 -0.073363945 0.006636186 0.008639505 -0.03340886 -0.03191625 -0.09695422
work 0.06829543 0.016335033 0.050313205 0.01721258 0.062665544 -0.022036834 -0.038921516 -0.0046934476 -0.093676366 -0.045249023 -0.03573402 0.0026221988 0.029086102 -0.039363667 0.023110928 -0.023748538
10 0.10018535 0.013396957 -0.09910963 0.150732 0.04155359 0.18216792 -0.017364213 0.079278454 -0.14092463 0.0979063 -0.13486885 0.23860364 -0.06202246 -0.11312612 0.14071567 -0.12818123
before -0.024806028 0.053709026 0.06393296 0.006458859 -0.0340691 0.052526545 -0.022226343 0.051281635 0.043130986 -0.021814412 -0.017517064 -0.013002504 -0.039657548 0.023517126 -0.05182118 0.017574323
another 0.04830952 0.05733008 -0.0335678 -0.023821775 -0.035534855 0.02922524 -0.053385377 -0.03434682 -0.041962206 -0.0092512 -0.02985911 0.038395587 0.04323745 -0.054115813 0.041231915 -0.054324724
didn't -0.10137743 -0.10354008 0.0038863611 -0.01846628 0.037299402 -0.024464421 0.05405974 -0.010892107 -0.0021343573 0.08903947 0.032008983 0.01643717 -0.09070072 0.11995987 0.060164806 0.117485024
new 0.055927493 0.016679352 0.04054947 0.07315212 0.04301759 -0.039056078 -0.045275535 -0.032089718 -0.043231238 -0.03518278 -0.009348502 9.689282e-05 0.057538524 -0.055055756 0.017965117 0.0285799
funny 0.004180354 -0.012403627 0.03707678 -0.013088097 0.024882732 0.008840935 -0.046282433 -0.053914573 0.050494887 0.014755608 0.060623985 -0.098577574 -0.024954695 0.06569235 -0.048266985 -0.012901067
nothing -0.052287236 -0.1389985 0.055587936 -0.07937129 0.0072312355 -0.08865723 0.06867526 -0.10758526 0.06682072 0.045763254 0.12501328 -0.06051519 -0.08630403 0.08899887 -0.025091851 0.11366519
actually -0.04770117 0.0082666045 -0.031173581 -0.051259834 -0.0050975294 -0.03317492 -0.05021923 0.046203505 0.0141512025 0.015994707 0.02954786 0.021886127 -0.009416149 0.0223678 -0.042189956 0.019146878
makes 0.12992033 0.08933434 0.050268892 0.058330275 0.053943634 0.03355375 -0.03305607 0.0365753 -0.07666366 -0.07161253 -0.082874656 0.026864592 0.048691023 -0.04449026 0.043697834 -0.040431593
director 0.047155418 -0.00569179 0.026459027 0.037403557 -0.036556974 -0.0030954436 -0.054124955 0.0140151 -0.028882314 0.01482274 -0.03422039 -0.009889994 0.04248582 -0.06049325 0.018928349 0.0065527246
look -0.0350929 -0.03053046 -0.0020428349 0.06312181 -0.014673377 -0.059393976 -0.032580294 -0.0103719635 -0.03188218 -0.041761186 -0.02164832 -0.03074954 -0.0075869756 -0.011976529 -0.080170505 -0.04334385
find 0.012161756 -0.0076899887 0.06014425 -0.03777809 0.06496663 0.01556854 -0.033929635 0.0039932285 -0.016375145 -0.02171785 0.009501674 -0.08852146 0.027617913 -0.024806846 -0.08574793 -0.01803659
going -0.05026139 -0.02276831 -0.05335512 -0.12182277 -0.002735201 -2.1982647e-05 0.027851738 0.01041879 0.043377843 -0.017028283 -0.039124228 -0.006125141 0.013012917 -0.01771277 -0.010682695 0.06318324
few -0.030331763 -0.038414508 -0.06421565 -0.015551656 -0.023769053 -0.08259464 0.044521928 -0.011857539 0.091919854 0.08508721 0.04492152 -0.027610408 -0.0276621 0.03671863 0.01645737 0.011391029
same -0.03984827 -0.035237495 -0.04030866 -0.046330538 -0.0510936 -0.09844463 0.022752892 -0.042820267 0.033499755 -0.0107389 0.042057686 -0.011928982 -0.021767119 0.04302573 0.0028639634 0.008087039
part -0.045323875 -0.054890428 0.05584441 -0.051887512 -0.046607688 -0.027559638 0.088672034 -0.10178899 0.047437772 0.1087399 0.1173709 -0.022175431 -0.034527257 0.097103916 -0.06629628 0.07421088
again 0.1406498 0.107417926 -0.05197656 0.0641154 0.06236902 0.099072285 -0.014837731 0.06822819 -0.14493842 -0.046164665 -0.08737256 0.061150685 0.07612238 -0.089216895 0.06700571 -0.06930721
every -0.019612186 -0.09677586 -0.07770573 -0.021517668 0.018427081 -0.011871765 0.026895287 -0.021497626 0.050038707 0.023712706 0.015051167 0.022746477 -0.018372122 0.04601157 -0.016312705 0.0049233665
lot 0.021140972 0.08036397 0.138919 0.097700916 0.012750627 0.057884995 -0.0057390276 0.0010501447 -0.018404592 -0.046724588 0.0023100602 -0.028298512 0.078144364 -0.064850874 -0.057201758 -0.08504307
cast -0.013354878 0.0020774154 -0.10704285 -0.08485875 -0.0021443479 -0.027144885 -0.0073561775 -0.07001125 0.028697023 0.07406567 0.036231667 -0.011613376 -0.039377417 -0.019010842 -0.014043042 0.025716797
us 0.052035663 -0.0026734995 0.03453063 0.07832905 0.07647731 0.042682 -0.07883883 0.04917458 -0.024586894 -0.103664815 -0.09100977 0.0850506 0.102607936 -0.07802832 0.07647521 -0.027108245
quite -0.038529824 0.058233563 0.07771856 0.04366117 0.04792048 -0.0086017 -0.019452425 0.008613598 -0.04641759 -0.063541114 0.014299665 -0.034992035 0.11416998 -0.020724008 0.00080441154 -0.06214931
down -0.006114537 0.03348178 0.0260148 0.026312161 0.007836718 0.06409566 -0.032038633 0.044055954 -0.002126709 -0.034652833 -0.003575367 -0.017091295 0.04191101 -0.05035485 -0.10487136 -0.0717755
want -0.056983307 -0.05917119 -0.058221105 -0.08973861 -0.045845926 -0.07520024 0.046276692 0.014516659 0.0077470155 0.022613414 0.012308269 -0.0042921402 -0.072513245 0.03088824 -0.004677424 0.058360748
world -0.054743707 -0.010046229 0.03196912 -0.031048639 -0.028743334 -0.058694065 -0.0116497725 -0.013775559 0.032400634 0.029697891 0.014154835 0.00940568 -0.020983016 -0.01725105 0.036851574 0.013584055
things -0.039681833 0.039482925 0.073540956 -0.0106457 0.05873104 -0.016175589 0.0028600676 0.0597885 -0.05290308 -0.07189114 0.012901774 0.018969119 0.04258099 -0.0025878341 0.014124533 0.02673164
pretty 0.07760444 0.08146452 -0.0248238 0.044696286 0.028669138 0.02176436 -0.082093045 0.11049846 -0.041193392 -0.07153668 -0.0719469 0.032223668 0.036860943 -0.050893925 0.07266454 -0.07306335
young 0.11885263 0.06810642 -0.0052872016 0.09733887 0.0545327 0.11103901 -0.12878676 0.07434293 -0.11884948 -0.057339426 -0.119234145 0.10090476 0.06263206 -0.06872552 0.016291378 -0.09273735
seems -0.055937067 -0.023326503 0.019020755 0.040752266 0.024148723 -0.07388514 -0.020798212 0.017245935 0.04539104 -0.0060947663 -0.0075823474 0.0032388573 -0.0049803024 0.08504454 -0.027869081 0.0082730185
around 0.052807312 0.052553363 -0.06095416 -0.03689334 -0.020207254 0.086192034 -0.025545988 0.06775 -0.046777785 0.03871118 -0.09700227 0.055362355 0.032786705 -0.008508429 0.06822777 -0.061417088
got 0.0064825355 -0.01171459 -0.06506185 -0.005028287 0.0062687243 0.031545315 0.06124636 -0.07050827 0.029643029 -0.008642745 0.027292985 0.015260472 -0.008403223 0.024601392 0.037044406 0.013468335
horror -0.036158193 -0.026371304 0.03203879 -0.029215017 -0.004330175 -0.053932045 0.064951874 -0.0069359816 0.005495172 -0.038804967 0.009836578 -0.097975984 -0.038953744 0.032298718 -0.013444527 -0.010004636
however 0.01384775 -0.013001091 0.08197935 0.0608565 0.02482777 0.028719878 -0.06547764 -0.017559005 0.042872902 -0.049688548 0.0013089806 0.023826946 0.07937893 -0.03417691 -0.081069894 -0.047622602
can't -0.017390182 0.03163799 0.14906394 0.10641599 0.03906806 -0.0023166789 -0.03791741 0.020515658 0.003206867 -0.08651965 0.017050605 -0.0024237025 0.026583591 -0.04319847 -0.028965034 -0.07358863
fact -0.025936896 -0.07253904 -0.038147397 -0.045596875 0.016908096 -0.08944707 0.014344865 -0.04884565 0.034051158 -0.014772609 0.04160477 -0.05298359 0.020932602 0.031655133 -0.05554313 0.007662578
take -0.012491715 -0.024417644 -0.055837624 -0.018866932 0.039542515 0.025900261 -0.0005649129 -0.002508683 -0.07047263 -0.0066432958 -0.09143318 0.045235407 0.033730853 -0.047205396 0.049296696 -0.082754225
big 0.018276742 0.060627017 0.021721084 0.08420007 0.09363105 0.04955007 -0.06958374 0.07552328 -0.08849365 -0.085367754 -0.0016324755 -0.006183206 0.11019401 0.016649619 0.033482317 -0.03799623
enough -0.047376007 -0.05678836 0.0074913832 0.022603817 -0.00037558645 -0.05412668 0.055302914 0.006967348 0.011341758 0.009652491 0.040183987 -0.036307145 0.012577063 0.040821604 0.06261469 -0.000515413
long -0.0415108 0.021704454 0.007955766 0.048378263 -0.04053127 -0.054184753 -0.033013023 -0.023595067 0.01560612 0.04959525 0.019481018 0.002914981 0.0069352756 -0.020438839 -0.097967274 -0.021283379
thought -0.08055008 -0.06448614 -0.013211254 -0.012211483 -0.03735581 -0.07518119 0.0636833 -0.10610684 0.093131825 0.071062975 0.08277666 -0.10310346 -0.079514936 0.07855111 -0.10772259 0.10256035
that's 0.03528309 -0.057208404 -0.022815827 -0.03224153 0.016425077 -0.051853865 0.0050793584 -0.034469955 0.010647225 0.013991697 0.023619117 0.0023602792 -0.014275573 0.015595609 -0.060021594 -0.035703957
both 0.11744799 0.08729949 0.04535085 0.11249083 0.06199664 0.1269765 -0.09831973 0.12861104 -0.11016954 -0.1576406 -0.048166886 0.08336385 0.13686548 -0.08098839 0.04238878 -0.12877473
between 0.080646574 0.01361379 0.07370806 0.0896105 0.02069496 0.08396293 -0.1243512 0.10162071 -0.07622822 -0.0485013 -0.06868749 0.06800756 0.098793104 -0.05614773 -0.03979885 -0.08105999
series 0.033473957 0.042678136 0.05311327 0.15822366 0.11189084 0.061752684 -0.087582 0.106741875 -0.048188683 -0.117462434 -0.11792584 0.089521356 0.117732525 -0.09122114 0.09219406 -0.07654397
give 0.030347276 0.005001032 -0.079711966 -0.061832905 0.01759961 0.008314432 0.037260015 -0.039536875 -0.083457746 -0.04342865 -0.019483186 0.043716878 -0.049100157 0.016259497 0.05055201 -0.06479803
may 0.0753979 0.058734216 0.058049366 0.051756468 -0.013907957 0.047154807 0.013870618 0.039143886 0.028187385 0.026463492 -0.013319528 0.04089241 0.023358746 -0.036021035 -0.019361174 -0.04710091
original -0.035571534 -0.07327581 0.06745318 -0.02817171 -0.00078407954 -0.090251915 0.08533264 -0.06678689 0.1062031 0.01404811 0.04378222 -0.019047718 -0.04578992 0.07231624 -0.10142073 0.014848219
own 0.039372507 0.031466827 0.03285589 0.09449586 -0.032905776 0.019666318 -0.042775627 -0.026833463 -0.08935964 0.0031832207 -0.08354845 0.05766083 -0.03201396 -0.066847466 0.074341364 -0.06871214
action 0.024198586 0.019298943 0.05920374 0.061136585 0.059090193 0.08092426 0.01671854 -0.0036436429 -0.06262817 -0.018175965 -0.00478063 0.006647068 -0.02738751 -0.034048628 0.020846851 -0.029993193
i've 0.010031202 -0.024953363 0.028401598 0.002053783 0.0003902803 0.011159808 -0.0019669258 -0.063125834 -0.0037971623 0.040565096 -0.016115189 0.025076307 -0.011994761 0.012793059 0.04405902 -0.020682022
right 0.005618665 0.052574996 0.09513404 -0.0153902415 0.0076966425 0.026093312 -0.02808462 0.07116457 -0.05233414 -0.03831416 0.0016333817 -0.043439377 0.095370844 -0.0127508165 -0.009863302 -0.08203461
without -0.03937041 -0.014565097 0.18565649 0.036753256 0.034661766 -0.026401386 0.012536915 0.046276588 -0.014057573 -0.028955542 0.013632945 0.032766122 0.04664969 -0.07816908 -0.070451826 -0.065170325
always 0.1781365 0.14133836 0.040944196 0.1075477 0.13055839 0.15234806 -0.08169174 0.15705739 -0.093337476 -0.12992333 -0.09161774 0.09404334 0.07795328 -0.18928792 0.012516807 -0.13887864
times 0.003997908 0.059455708 0.02626713 0.06822773 0.03908909 0.033559315 -0.10675076 0.019576736 -0.05515247 -0.013583138 -0.049792737 0.050481945 0.094803065 -0.049220502 0.040728457 -0.10225727
comedy -0.042690407 -0.10099353 0.18983595 -0.004135648 0.076625615 -0.07064374 0.034032542 -0.07367076 0.01650873 0.00962298 0.041191168 -0.13923939 0.07529016 0.030139882 -0.071829244 0.06463125
point -0.09160206 -0.08774953 -0.06340686 -0.073633894 -0.09501467 -0.09699132 0.039919946 -0.05785514 0.10427388 0.09087567 0.041737553 -0.06206391 -0.12102704 0.10089602 -0.03450469 0.11638751
gets -0.07144018 -0.089203745 -0.04665528 -0.042798024 -0.013951449 -0.007152131 0.022832349 -0.06839758 0.07116969 0.08807494 0.051967014 -0.026601212 -0.020950194 0.01609567 -0.0842979 0.09697032
must 0.1419184 0.117287636 -0.06493488 0.062544905 0.0025690508 0.1585813 -0.07977468 0.1353749 -0.08287597 -0.052424654 -0.15309173 0.08271461 0.017027784 -0.11833455 0.067816064 -0.099136144
come -0.059618626 -0.035786062 -0.003652183 -0.033756495 -0.039702166 -0.02400849 0.07327929 -0.054837685 -0.0004936221 -0.007871474 0.043367814 -0.009741357 -0.0014056469 0.013240416 -0.025313148 -0.0018101948
role 0.07402497 0.05084669 -0.024432886 0.09480812 0.037902858 0.026966117 -0.04894045 0.080099225 -0.085247576 -0.036677856 -0.08398734 0.033626292 0.033517156 -0.042325422 -0.030182729 -0.04618165
isn't -0.0154029075 0.04431931 0.113002695 0.092413716 0.0653627 0.033354007 -0.07349681 0.022023385 -0.040335502 -0.028724482 0.009119683 -0.053285725 0.032008395 -0.06729469 -0.04890124 -0.008896121
saw 0.016013397 0.10589267 -0.052526552 0.010523104 -0.031577036 0.08196096 -0.066106424 0.019157894 -0.010811026 -0.00646746 -0.10243692 0.037784483 0.0400564 -0.0623767 0.025277227 -0.017819863
almost 0.04586865 0.044954978 0.020521268 0.021400297 -0.008446258 -0.023814252 -0.0578534 0.016999416 0.03582996 -0.022233205 -0.0150177665 -0.11166209 0.009664541 -0.03827039 -0.10092449 0.0038675605
interesting -0.075617544 0.0068889107 0.04738767 -0.006005159 -0.018416023 -0.019592538 -0.022709917 -0.05143721 0.057680994 0.0138261765 -0.0027656714 -0.04579017 -0.030953005 0.06714302 -0.051617347 0.048421156
least -0.02089627 -0.031750508 0.072134934 -0.030504681 0.047297444 -0.021173421 0.004780338 -0.044273924 0.021017628 -0.008103038 0.059072766 -0.025894227 0.0043804324 0.050124116 -0.060460627 0.05551026
family 0.07262175 0.08722933 0.020081926 0.0808396 0.092514955 0.122623414 -0.1025867 0.10476265 -0.13270879 -0.1464455 -0.07464923 0.13758527 0.15161584 -0.14920871 0.11979265 -0.07369155
done 0.0071159797 0.0070306696 0.13368306 0.07048324 0.052490905 0.027473476 -0.0006120943 0.017089466 -0.0144318305 -0.06983849 0.010420262 -0.038833883 -0.0039815214 0.002984472 -0.01070198 0.037450586
there's 0.00048188932 -0.030829784 0.034517772 0.01939651 0.025971165 -0.06744348 0.06528989 -0.017308312 0.07837317 0.046793543 0.032456573 -0.038434498 -0.06829617 0.037620317 0.0024498561 0.02690833
whole 0.114103705 0.077514894 0.032658927 0.056137234 0.049390357 0.057526655 -0.028527886 0.024265647 -0.087464035 -0.03520101 -0.042935327 -0.033639226 0.0042786133 -0.07682824 0.002266934 -0.100615084
bit 0.0023962068 -0.01203245 0.05705948 0.026606085 0.013790806 -0.03626645 0.0029564705 -0.02479106 0.004163823 0.029543417 0.00524808 -7.241988e-05 0.0035587398 -0.0071969563 -0.052392498 -0.03210084
music 0.074670516 0.05422123 0.037490685 -0.02856391 0.03146837 0.10473245 -0.10414259 0.10479704 -0.11397344 -0.10220765 -0.10058087 0.027482325 0.105752416 -0.048788056 0.010765649 -0.12467058
script -0.03613221 0.049825087 -0.021970091 -0.010203421 -0.02661346 -0.029557018 0.036529426 0.0076082526 0.080755375 0.044616316 0.039879166 -0.0525494 -0.0700952 -0.03997126 -0.070837356 -0.049782954
far -0.07163465 -0.064798936 0.033818886 0.022336997 0.043620102 -0.05122141 -0.012350906 0.009190161 0.03403545 0.0010993392 0.043503888 0.006677536 0.0032037464 0.104271404 -0.014814257 0.00553867
making 0.041700363 0.04340274 -0.008434786 0.071593836 0.07671022 0.10985301 -0.07733129 0.09549749 -0.11475189 -0.099859424 -0.077032916 0.052133672 0.122542515 -0.10432272 0.024978636 -0.096981496
guy 0.0844304 0.022385297 -0.014616126 0.068414904 -0.043678198 0.05851679 -0.05110725 -0.0070598926 -0.028034998 0.04637647 -0.06317251 -0.0036571424 -0.04891727 -0.08933632 0.07142347 -0.10797253
anything -0.04738572 -0.1214696 0.17097086 -0.02914852 -0.021220753 -0.055261977 -0.018769776 -0.024477134 0.024544189 -0.03006581 0.048480242 -0.033749167 -0.0087695755 0.08960277 -0.023410358 0.045544017
minutes -0.14214024 -0.058249786 0.09977088 -0.112523265 -0.038291916 -0.13893424 0.13534483 -0.1393765 0.12229017 0.11144765 0.14884631 -0.049275015 -0.10685335 0.12193706 -0.10846173 0.14637963
feel 0.06182252 0.015026054 0.06988537 0.05874341 0.07389056 0.04760007 -0.023359455 0.037393544 -0.033935413 -0.015422325 -0.03528766 -0.051415045 0.08159645 0.008099906 -0.03740389 -0.014652628
last -0.054502293 -0.009483698 0.044592213 -0.0036901687 -0.032012545 -0.040344335 0.057977177 -0.053926665 0.004917436 0.04042502 0.023602497 -0.057580967 -0.016773777 0.039070424 -0.048327886 0.08206582
since 0.057018712 0.049154874 0.0077480637 0.09650489 0.102727115 0.08131758 -0.05237627 0.12418544 -0.10304339 -0.07455636 -0.1029269 0.09941723 0.050501037 -0.12642 0.017905608 -0.05595178
might -0.048687756 0.0086495215 0.12362226 0.045946714 0.09104189 0.011304672 -0.04874935 0.05088624 0.03783296 -0.0068159504 0.040785424 -0.08870935 0.031682145 -0.082560286 -0.13381913 0.018492399
performance 0.086057626 0.068541184 0.0014012122 0.008683431 -0.011116812 0.0015346748 -0.07148031 0.07056267 -0.06718396 -0.038134914 -0.09333512 0.07733638 0.09056003 -0.02058173 0.07377598 -0.053958133
he's -0.019703427 0.00654269 0.020732354 -0.032534044 0.0015455678 0.014134737 0.03498354 -0.02156051 0.02627106 0.044842146 -0.027426288 -0.037593313 -0.036932483 0.011913245 -0.060900703 0.028132401
2 -0.12388289 -0.12610641 0.04738466 -0.11047457 -0.045369867 -0.11481967 0.09890096 -0.1036375 0.10775271 0.17439996 0.12598288 -0.12034222 -0.12221282 0.18609127 -0.05243162 0.15738924
probably -0.039193142 -0.035099044 0.131958 0.07534758 0.04570382 0.041860204 -0.026810762 0.038810402 0.06463071 -0.006411996 -0.015368203 0.0071871653 0.07781916 0.042394392 0.016999321 0.00903455
kind -0.080890186 -0.06446405 -0.06792532 -0.054107223 -0.11074117 -0.07435456 0.09247978 -0.11602852 0.060500313 0.054417625 0.0823691 -0.017994443 -0.12475779 0.0956003 0.013548998 0.113318704
am 0.094800115 0.04822071 -0.018584512 -0.027989127 -0.016525986 0.03293451 0.032470714 0.057932854 -0.004704906 0.031738967 -0.04605072 0.038677342 0.033162773 -0.065115914 0.0038413494 -0.034780305
away -0.07386939 -0.0011204373 -0.0030604478 0.013181592 -0.0036965108 -0.06178515 0.017481722 0.02367545 -0.013391757 -0.011277388 0.034353543 0.0051357946 0.037128 0.009610969 -0.030101262 0.018794507
yet 0.06739931 0.07231813 0.08612415 0.09775084 0.05952339 0.03818308 -0.08329293 0.007014814 -0.059222255 -0.13270481 -0.069918975 -0.03238937 0.04625511 -0.1028547 0.05108814 -0.060596623
rather 0.10107243 0.06219897 -0.12720259 -0.020863052 0.045742042 0.098607875 -0.03354306 0.01997844 -0.08148277 -0.023344615 -0.09923953 0.05240525 0.06611286 -0.10733168 0.07770179 -0.08240101
tv -0.055455256 -0.040105067 -0.0029968717 -0.057517186 -0.052529372 -0.0023208496 -0.0048270123 -0.05934847 0.06631226 -0.00038446093 0.00087370083 0.012432321 -0.011280344 0.057019398 -0.033301644 0.02157837
worst -0.09848884 -0.1477997 0.1009333 -0.07643569 -0.07370349 -0.19983923 0.1004302 -0.17986417 0.15707262 0.16673207 0.12285405 -0.05378259 -0.19594625 0.17115349 -0.12091616 0.13073212
girl 0.01165299 0.06752777 0.032359716 0.044883925 0.017874008 -0.017976575 -0.044995885 -0.020759348 -0.06876903 -0.00023712737 -0.04933648 0.037120715 0.052435763 0.017908478 0.008297296 -0.04040432
day 0.019079432 -0.05163247 -0.058040615 0.01491023 0.018379288 0.026237316 -0.052235555 0.028140659 -0.0030130465 -0.038278025 0.01816622 0.05122486 0.06821542 -0.054338768 0.016815877 -0.052268777
sure 0.0062482795 0.047696613 0.0027383354 0.0062869573 0.06449617 0.050317228 -0.06914991 0.07053323 -0.003238974 -0.027038556 -0.0139319375 0.08339063 0.1050402 -0.056520652 -0.0036762315 -0.09273648
fun 0.090186775 0.08735785 0.10177721 0.20054829 0.16229142 0.06954681 -0.16619271 0.16441897 -0.14166284 -0.07519505 -0.12630962 0.052782927 0.13940671 -0.15143111 9.079624e-05 -0.12557529
hard -0.07472774 -0.08043987 0.033406608 0.0134460805 -0.011719848 -0.04261316 0.046084143 -0.0058777123 0.0141104655 0.06470517 0.033795632 -0.03653913 -0.034029014 0.050361246 -0.021212323 0.08066842
woman 0.021880375 0.02628525 0.01362007 0.042598575 0.07517323 0.036444575 -0.084413245 0.011556607 -0.09603037 -0.056609962 -0.045050684 0.0027492442 0.09866396 -0.07343424 0.011007632 -0.009077148
played 0.012393682 -0.027053373 0.0114748 0.03449214 0.0076147085 -0.012252497 -0.03307271 -0.020288674 -0.031620536 -0.046440072 -0.03769842 0.001315485 0.015843924 -0.038684927 0.032623976 0.015553247
each 0.07721499 0.0046144375 -0.016396543 0.040927712 0.013126618 -0.0075230533 -0.008173831 0.074698724 0.0017597354 -0.007615955 -0.0035967578 -0.00657962 0.03699547 0.0037389619 -0.007939563 -0.0024674218
found 0.0425691 0.082986444 0.16714534 0.17267026 0.12568663 0.089224584 -0.07416445 0.09432408 -0.0784488 -0.0939727 -0.07943671 -0.018006474 0.1391026 -0.12657414 -0.016136715 -0.10640011
anyone 0.027683066 -0.065203406 -0.057219874 0.028564306 -0.0064273556 -0.034275502 0.052329697 0.03180838 -0.05816301 0.020653067 0.03667212 -0.0011025134 0.016175974 0.07379106 0.006996804 -0.0025024344
having 0.033013925 0.0317198 0.0857431 0.08598326 0.040835466 0.10762183 -0.07730734 0.06889505 -0.08427465 -0.09181168 -0.067529246 0.011704488 0.07285379 -0.03745956 -0.011888778 -0.08856184
although 0.02301522 -0.031475 0.0044849045 -0.044201944 -0.038023062 0.060650136 0.06401846 0.00839322 0.014009732 -0.013952039 -0.006713673 -0.040329505 -0.06974547 0.032189485 -0.02736965 -0.04325768
especially 0.051093888 -0.009267605 0.14874128 0.07813359 0.045720443 0.03933722 -0.048558593 0.10243217 -0.019939777 -0.1069251 -0.031295326 -0.034294356 0.07668298 -0.09653563 -0.04320687 -0.05010856
our 0.08125947 0.108062856 -0.034605402 0.08839703 0.05109618 0.13283215 -0.050874125 0.059432458 -0.05424966 -0.061662387 -0.08619698 0.087891944 0.116399586 -0.13770357 0.104354225 -0.11821009
believe 0.0762817 -0.0039965343 0.1087207 0.12277774 0.020385986 0.06436489 -0.062091477 -0.001485808 0.012155183 -0.059378676 -0.017736241 0.010091708 0.074028105 -0.050131824 0.03552253 -0.040120583
course -0.021390459 -0.015728053 -0.021604046 -0.018106693 -0.022650968 0.0034526938 0.039248053 -0.055230405 0.015466548 -0.020348178 0.026499394 -0.0579501 -0.03273098 0.00013706269 0.006403125 -0.033746514
comes -0.05541053 -0.023854772 0.004225066 0.0102650095 -0.0046524657 -0.002147929 0.036399238 -0.027060306 0.016799208 -0.0024999846 0.053138707 -0.02310451 0.0014279863 0.04851912 -0.011939257 0.014453486
looking -0.07529924 -0.1087452 0.07090056 -0.008162471 -0.040465094 -0.06977679 0.07393806 -0.0882798 0.042050574 0.054637883 0.08369058 -0.07716562 -0.027968455 0.024152175 -0.036238194 0.047307793
screen 0.028374203 0.06836607 -0.012932331 0.074835286 0.06815542 0.095881976 -0.016859684 0.083491825 -0.018912785 -0.031268373 -0.034831952 0.027379895 0.042013906 -0.04761845 0.015147945 -0.044169866
trying -0.090585545 -0.09974092 -0.037604902 0.0037824945 -0.09063445 -0.08494546 0.05378757 0.010137637 0.019385614 0.037425537 -0.003169824 -0.09510967 -0.055077694 0.022774437 -0.050677076 0.019294204
set 0.020355606 0.030624336 -0.004104709 0.027970511 0.024653327 0.09342582 0.028262071 0.014992187 -0.0366182 0.012292608 -0.0328172 0.016195327 0.013207249 -0.028483285 0.0057802303 -0.01335309
goes 0.07246026 0.025791358 0.09572084 0.04885998 0.022867378 0.05248686 -0.044266313 0.088833556 -0.006083863 -0.066602364 -0.04057172 -0.06383065 0.119646095 -0.08850918 -0.06477691 -0.05366401
looks -0.043434437 -0.05025648 -0.042408545 -0.018024152 -0.031306755 0.01938664 -0.01277102 0.01543569 0.033408314 -0.045388624 0.0041031684 -0.06958868 -0.02677607 -0.039626237 -0.024481528 0.0078033004
place 0.1489422 0.15410955 -0.12067226 0.09510839 0.1409398 0.16497344 -0.1844258 0.16248448 -0.1139442 -0.17621379 -0.114453666 0.16639303 0.17255221 -0.14858973 0.05726246 -0.12284776
book 0.049397733 0.06003323 0.08592969 0.06812497 0.054150604 0.019878794 -0.13508266 0.034709975 -0.07871596 -0.11224427 -0.045510493 0.040029947 0.06471469 -0.055904694 -0.007893434 -0.06528174
different 0.018342348 0.019246606 0.110001445 0.020498391 0.00960133 0.07060923 -0.06259449 0.07654311 -0.023945969 -0.11384186 -0.020583276 -0.0016179746 0.07666252 -0.068160556 -0.043123547 -0.02644892
put 0.029524101 0.015067437 -0.032423552 0.0036550844 0.09430143 0.10934811 -0.018936578 0.1009475 -0.034365162 -0.09359129 -0.102211215 0.019127011 0.12113021 -0.13743487 0.11177062 -0.060874235
ending 0.023793118 0.02251384 0.0066016307 0.11989709 0.022404753 0.105334416 -0.10762803 0.03927016 -0.016649863 -0.05950638 -0.046956096 0.0198017 0.06515133 -0.07913525 0.013390297 -0.112337545
money -0.13155843 -0.12371137 0.110237435 0.009227611 -0.04408147 -0.14640376 0.020599242 -0.06004819 0.010621965 0.08114868 0.075124376 -0.0809343 -0.04759505 0.14003451 -0.046503253 0.04997956
maybe 0.00856634 0.037530474 -0.042494368 0.009574627 0.023903297 -0.032644723 -0.011746504 -0.048141357 0.018403746 -0.019019974 -0.03456265 -0.006982655 -0.00079483946 0.03700218 -0.023940684 0.048839014
once 0.073273204 0.0051319166 0.0065742647 0.008172112 0.08408513 0.06597991 -0.055643965 0.060702667 -0.050417434 -0.108150996 -0.0835508 0.08940234 0.117089406 -0.05525412 0.016005456 -0.04992101
sense 0.06018158 -0.007233459 0.096696585 0.067156106 0.007113283 -0.036116023 -0.0014547438 -0.013586335 0.015752062 -0.04250813 -0.03140936 0.06552851 0.09480228 0.0129796285 0.002791381 -0.022767868
reason -0.031097647 -0.027950808 0.007482091 -0.060883358 -0.011106486 -0.01206862 0.038425487 -0.0034157003 0.06278706 0.08462347 0.04580432 -0.08597872 -0.013843089 0.035952736 0.009190427 0.08315127
true 0.02869857 0.043299302 0.024330415 0.03233859 0.009395186 0.060462102 -0.05019566 0.10280523 -0.071901865 -0.1030549 -0.029838882 0.05806894 0.111791655 -0.11265617 0.039322566 -0.108245015
actor -0.018700998 0.00092176045 -0.02531034 0.01805492 0.022578426 0.028305601 -0.07969165 0.026408246 -0.018792056 -0.0028370186 -0.01095647 0.025056371 0.014855201 -0.027749723 0.024695495 -0.05204458
everything 0.039379753 0.06278674 0.021230692 -0.035801563 -0.06775403 0.0043658214 0.032332912 -0.031637646 0.030831575 -0.015979828 -0.0015948832 0.00012092503 -0.062076103 3.332062e-05 -0.03942343 -0.004491625
wasn't -0.098297775 -0.15636429 0.026318632 -0.092057995 -0.05744956 -0.15293245 0.10027083 -0.12277272 0.11531781 0.17314212 0.08280925 -0.04606132 -0.08809244 0.1388666 -0.10150993 0.09298339
shows -0.024140798 0.002242441 0.01436874 0.013385574 0.054700274 0.043505557 0.028774923 -0.019740589 -0.045458358 -0.059926745 0.023175023 -0.015096246 0.017339075 0.022172736 -0.016335234 0.018660212
dvd 0.04019301 -0.006240461 -0.0027601086 -0.0010839184 0.040485192 0.0016544925 0.008927988 0.017528877 0.013890501 -0.06430732 0.03657863 0.026600616 -0.026864078 -0.039707903 0.040550187 -0.026032865
three 0.014986693 -0.01872718 -0.026512066 0.02809387 -0.037487872 0.04688951 -0.0398704 0.04142903 0.00062680646 0.062494893 -0.047754508 0.03256242 -0.0013208892 -0.015189014 0.0072615943 -0.015160947
worth 0.122742705 0.029620167 0.021427903 -0.008271746 0.0581436 0.036817238 -0.0222881 0.08799763 -0.12144954 -0.03442463 -0.10457198 0.027311988 0.082396284 -0.11752999 -0.013476641 -0.06831455
year 0.11239293 0.052383475 0.079716705 0.07219049 0.05146452 0.039299324 -0.064597055 0.11395957 -0.085691705 -0.029492307 -0.10381696 0.0028685802 0.09686971 -0.10071635 0.042424314 -0.07927707
job -0.018922366 -0.028432434 0.0043823537 -0.0004369282 0.007777944 0.04276002 -0.013551842 0.062004294 -0.09483555 -0.025147367 -0.04309452 0.00903368 0.09043224 -0.08190208 -0.026509576 0.010851707
main 0.016596144 0.051778205 0.006721566 0.0066154907 0.007051129 0.0406161 0.04760953 0.0078052063 -0.061527308 0.07010739 -0.065367505 0.067852765 -0.024399351 -0.050325017 0.035402693 -0.054621346
someone -0.16199394 -0.07444778 0.070894085 -0.10435571 -0.047784004 -0.08033864 0.07314 -0.07591829 0.100682735 0.08695427 0.17145595 -0.0047643213 -0.15276824 0.14819413 -0.050487284 0.17515261
together 0.038940124 0.0950549 0.046759564 0.11708021 0.12482491 0.065338396 -0.083063915 0.03497349 -0.050020434 -0.0181057 -0.0262857 0.11473483 0.104894266 -0.04557914 0.08668708 -0.030585429
watched 0.065529354 0.043551456 0.02789979 0.09347459 0.032227095 -0.025196105 -0.06789465 0.03875766 -0.0020863009 -0.07980669 -0.013550264 -0.013222315 0.102358796 -0.048787862 0.0024873638 -0.05289623
play 0.034350544 -0.021456346 0.07201686 1.0691583e-05 -0.011635705 -0.013021011 0.027440343 0.011500645 0.024961727 -0.06892535 -0.029964015 -0.02628556 0.052101973 0.027008714 -0.007888279 -0.07654499
american 0.12372096 0.1329757 0.002870589 0.08149841 0.12848212 0.07133817 -0.10062476 0.1599187 -0.0792382 -0.13437493 -0.15971226 0.037192278 0.09910997 -0.1689586 0.114148974 -0.09727285
plays -0.060063176 0.006781914 0.09981842 0.02792742 -0.050460905 -0.04347019 -0.021539565 -0.047779985 0.05306958 0.021038665 0.059406593 -0.06503039 -0.024755694 0.035396054 -0.02986953 0.04872009
1 -0.08695265 -0.16168328 -0.01354066 -0.04135682 -0.0023772458 -0.066364996 0.06801608 -0.031490155 0.06472019 0.027057748 0.056440115 0.03442696 -0.039585534 0.073464505 0.026155 0.08157104
said -0.012328344 0.040023927 -0.008609929 0.0047327923 0.060353056 0.027170323 -0.03288479 0.0077499566 -0.03406446 -0.01287331 0.014000079 0.01292521 0.04390184 0.044286873 0.10062757 0.0032711108
effects -0.007627085 -0.021216087 0.0074025774 -0.04784896 -0.032195438 -0.0013399062 -0.0356208 -0.026113233 0.03243905 0.024924934 -0.002035927 -0.004504042 0.00041817123 0.038004514 -0.062563345 -0.031124473
later 0.13237448 0.089908876 0.14416775 0.16444366 0.054435212 0.1305837 -0.09079881 0.13219534 -0.09059818 -0.1246156 -0.06378291 0.011294096 0.12859839 -0.14722261 0.026168138 -0.049609456
takes -0.01821824 0.009447101 0.0054958826 0.026692938 -0.026765011 -0.05667673 -0.0026663186 0.018728124 -0.00037640004 -0.023057934 0.028854538 -0.044777624 0.048896383 -0.03764915 -0.055924065 0.027399203
instead -0.15217896 -0.038988527 0.08602483 -0.09535558 -0.009550911 -0.08786343 0.06035815 -0.112175755 0.123202264 0.042189196 0.10549352 -0.16553414 -0.07395893 0.13707039 -0.11935833 0.0699486
seem 0.020761639 0.017658276 0.049086154 -0.033595588 -0.001350038 0.01836034 -0.028603677 0.018051393 0.032783076 -0.04390192 0.042735975 -0.09192361 0.009667147 0.040958278 0.0007689663 0.026351193
beautiful 0.17118305 0.16126831 -0.021784686 0.1645572 0.12589027 0.14809765 -0.17444786 0.17295362 -0.17648627 -0.18768026 -0.21871997 0.15842575 0.13843167 -0.15796798 0.06511969 -0.21371943
john 0.024975639 -0.005041081 0.07034363 -0.01607125 0.04727522 -0.000928203 -0.011234251 0.0006990841 -0.023379982 -0.044563264 -0.029502045 -0.013247376 0.012298977 -0.0576539 -0.028545447 -0.034840006
himself 0.07301134 0.046528522 0.031082239 0.11635408 0.12464141 0.11887201 -0.145153 0.1328977 -0.09858452 -0.09241232 -0.13846819 0.13813901 0.12812711 -0.115854874 0.06392107 -0.15592107
version 0.043109693 0.05942136 0.028402243 0.1558761 0.11787695 0.082483195 -0.13405131 0.1319405 -0.09731302 -0.06869653 -0.13163792 0.07006621 0.0813683 -0.04846671 0.011396399 -0.10999784
audience -0.01742553 -0.072879694 0.012188279 0.000476612 -0.08841156 -0.008954957 0.042409625 0.0002447504 0.022759752 0.06239739 -0.007991717 -0.0013862734 -0.082240015 0.014979646 -0.042289637 0.015640318
high -0.009724337 0.014830222 0.09131105 0.026423302 -0.023330366 -0.07734434 -0.005413699 -0.01860927 -0.02538366 0.033903603 -0.008836545 0.0003510244 0.033817947 0.008692528 -0.080436476 0.06783338
house 0.08196961 0.058336746 -0.06309161 0.02804034 0.020427644 0.037224486 -0.047084503 0.067405626 -0.121325344 -0.042346124 -0.0876284 0.102991536 -0.0118508 -0.074900776 0.07523236 -0.07045931
night 0.059562106 0.027674107 0.044006463 -0.03496164 0.039639946 0.05725804 -0.02463132 0.0719321 0.002865788 -0.0385339 -0.029916696 0.06615259 0.035136744 -0.0057388423 0.007263113 -0.058856163
during 0.05754948 -0.023709051 0.038898185 0.03125043 -0.013125478 -0.026367277 -0.072798185 0.07072853 -0.043583523 0.028949928 0.018638093 -0.03398413 0.022837898 -0.0321323 -0.052952908 -0.019072117
everyone 0.023181746 -0.036270227 0.031669017 0.08557962 0.03545805 -0.01624019 -0.029960904 -0.00041243763 -0.018887214 -0.09150146 -0.0014601713 0.0740893 0.025514802 -0.061393026 0.020179354 -0.052139718
left -0.1586073 -0.09642705 -0.012362664 -0.17605788 -0.06360967 -0.18818058 0.09920912 -0.17225206 0.15939736 0.16479836 0.16527526 -0.08022744 -0.10079957 0.21445476 -0.10455679 0.15420626
special 0.05733605 0.010591193 0.021854173 -0.0044973106 0.07925592 0.0028701609 -0.09413781 0.039664 -0.05186288 -0.08747334 -0.028859079 -0.032762047 0.024895804 -0.029742977 -0.08728175 -0.072188504
seeing 0.011184459 0.016777068 0.13534245 0.06323448 0.05275533 -0.0301647 -0.017551374 0.0019976136 0.050735243 -0.01828968 0.028242776 -0.008833885 0.05328519 0.057571523 0.04681171 -0.026838792
half -0.027547115 -0.11429702 0.08535831 0.0054217246 -0.04765937 -0.03003383 0.10143895 -0.060108658 0.111181796 0.08800927 0.05146397 -0.08723879 -0.052153394 0.046740253 -0.023238301 0.09469132
excellent 0.1435811 0.14691539 -0.0047304365 0.0749477 0.09744805 0.18700269 -0.14515275 0.13861485 -0.1801054 -0.15082112 -0.1990774 0.15632392 0.17300609 -0.14335868 0.05891663 -0.16095708
wife -0.07181134 -0.05912076 -0.01814825 -0.013296442 -0.016929094 -0.058252435 0.059012603 -0.052939884 0.02543066 0.01932178 -0.0081101535 -0.015961837 0.0058752554 -0.017280014 -0.07255597 -0.04085157
star 0.041223098 0.07185405 -0.019797215 -0.015197099 0.05399772 0.11147991 -0.06089191 0.046952773 -0.07833423 -0.10246386 -0.117591955 0.10695744 0.09261107 -0.063396044 0.061083347 -0.06703031
shot -0.029821599 -0.031057218 0.0031094041 0.052866943 -0.031032236 -0.056719687 -0.008334591 -0.009115554 -0.028049493 0.005623349 0.025442218 -0.054278873 0.00064188376 0.0066214832 -0.010887475 -0.0026911662
war 0.14136128 0.10378638 0.068876974 0.17645434 0.087783135 0.06438301 -0.10174999 0.118498 -0.13651949 -0.03932474 -0.11438799 0.11631809 0.12071918 -0.09369419 0.060372464 -0.13600382
idea -0.009034343 -0.036227625 0.010854925 -0.049651448 -0.05370862 -0.020211902 0.005387373 -0.017671281 -0.008576777 0.005885541 -0.05858403 0.025088526 -0.013553997 0.019173693 -0.06389796 0.0073792054
nice 0.04427907 0.046062756 -0.08598538 0.030878808 0.056761302 0.08685847 -0.05389246 0.053424355 -0.05438256 -0.049620226 -0.13841419 0.11655528 0.09402971 -0.064217344 0.038153596 -0.091622986
black 0.006542861 0.038661174 0.016254684 -0.009712951 0.0015700328 0.023120282 -0.0031835083 0.00044365562 -0.0054721874 0.06525103 0.0031561814 0.007134028 -0.0205652 0.009183292 -0.022286685 0.059021316
less -0.06806697 -0.022530643 0.031198002 -0.03303608 -0.0071582724 -0.03304613 -0.039231557 0.009909019 -0.012228601 -0.017550956 -0.025750475 -0.02231633 0.029973783 0.011349253 -0.08719805 0.008267558
mind 0.07586687 0.05797192 0.023267362 0.11073491 -0.0077984836 0.10946217 -0.024295894 0.10821526 -0.10178269 -0.07599189 -0.110437684 0.10551957 0.08796389 -0.13798256 0.09062794 -0.11790166
simply 0.041202515 0.040177166 -0.031770885 -0.010683658 -0.012880672 0.0434611 0.031057034 -0.017994286 0.025870422 -0.0068289116 0.029554002 0.09308618 -0.030952428 0.025117328 0.07860873 0.02657029
read -0.06655321 0.022774559 0.036625743 -0.005467372 0.09080885 -0.04129169 -0.011113704 0.02469985 0.042280205 0.048116818 0.08305949 -0.074234284 0.04990403 0.074930035 -0.0438673 -0.0076823994
second 0.014593936 0.010356347 -0.042054966 0.06678623 -0.041293457 -0.001887283 0.04378737 0.006283811 -0.013935502 -0.054743834 -0.07003517 0.031191247 0.0079851495 -0.027835034 -0.008935174 -0.0038745755
else -0.021168368 0.003391778 0.008095459 0.04689989 -0.021117162 -0.008585979 0.05664447 0.022228844 -0.047676045 0.06147579 0.019384163 0.052388404 -0.014820227 0.033311773 -0.025190828 0.016968202
you're 0.0015275518 0.007862831 0.0030270682 0.0056024482 0.030547278 -0.075925834 -0.038941585 -0.039385464 0.036741234 -0.0022031039 0.04665838 -0.07453898 0.010706509 0.058234926 -0.0880556 0.07593592
father 0.041886657 0.054407056 0.08290771 0.053506985 -0.00281961 0.009652679 -0.040704474 0.089315526 -0.01982935 -0.074379094 -0.0496204 0.060474105 0.09673394 -0.0487047 0.06093157 -0.05392079
fan 0.007895489 0.012019598 0.022241965 -0.014526665 0.011969376 0.06122603 0.017255025 0.06565734 -0.04573134 -0.006912192 0.012286533 0.041926153 0.05626633 -0.044780202 -0.011295257 -0.039934076
poor -0.00079850695 -0.031321317 0.015899826 -0.06820609 -0.04051605 -0.06471014 0.05168432 -0.043479744 0.03689784 -0.0018272486 0.03887653 -0.04529122 0.015744504 0.00931635 0.007862243 0.007481031
help -0.035862844 -0.011970392 -0.023188634 -0.021693734 -0.05431062 -0.05847791 0.039709486 -0.06019158 0.053688608 -0.005703862 0.051799115 0.048072618 -0.011882667 0.05880316 0.01501079 0.0023902815
completely 0.012461108 -0.0010540844 0.02591391 -0.0679597 -0.055204894 -0.02621641 0.026724666 -0.024234807 0.054764353 -0.015808634 0.026006972 -0.035906937 -0.03026165 0.03235451 -0.09174161 0.048562717
death 0.051058438 0.046015013 0.004365764 -0.03203692 0.037291683 -0.018511474 0.040410265 0.0064848466 -0.009324341 -0.049713694 -0.05081197 0.009907785 -0.00904445 0.02079393 0.018801047 -0.0033909285
3 -0.2191327 -0.23995125 0.1959002 -0.11614885 -0.03289133 -0.22348468 0.1398434 -0.12401784 0.090811856 0.1271084 0.12202746 -0.1084756 -0.0137150455 0.15718137 -0.10354597 0.1826663
used -0.11842686 -0.10425724 -0.09201393 -0.061066613 -0.10820161 -0.08718402 0.0844413 -0.108868875 0.08916887 0.084706746 0.05038492 0.016198529 -0.08972792 0.112602055 -0.05737966 0.1517657
home -0.024560733 0.006365845 -0.0035765534 -0.020689735 -0.085664995 0.04713609 0.073530465 -0.02851122 0.006207867 0.096147545 -0.026906304 -0.0056623984 -0.008631886 -0.05218488 0.061596915 0.030359074
either -0.08956146 -0.11348304 0.015263825 -0.112038575 -0.041481704 -0.06707372 0.12822513 -0.13925134 0.13620125 0.058099773 0.07309086 -0.12629035 -0.054140054 0.10826064 -0.07572979 0.113397606
short 0.039158072 0.060992423 -0.026161108 0.03679193 0.049024515 0.030582624 -0.037904575 0.03551858 -0.016276805 -0.05030401 -0.036133226 0.048346948 0.030022567 -0.0537917 0.058776535 -0.0698394
line -0.01227626 -0.021824472 0.053990733 0.0017587974 0.017932685 -0.034546066 0.02440295 -0.041334763 -0.049132887 -0.031005884 -0.010424917 0.01217719 -0.017646588 -0.04459875 0.07517276 0.008467449
given 0.13639028 0.08941368 0.10733422 0.078087665 0.06304292 0.07262272 -0.11899816 0.10213574 -0.07968013 -0.10233061 -0.12711167 0.0633664 0.12099242 -0.12517335 0.028225286 -0.07631668
men -0.04132596 -0.044535328 0.013550624 0.07010887 0.014481323 -0.003082877 -0.06277401 0.033193436 -0.030418087 -0.011532828 0.006789897 0.028733477 -0.0011854338 -0.019933261 0.06631519 0.009680164
top 0.16143975 0.14424045 -0.02661725 0.17844476 0.1776273 0.20189065 -0.20618059 0.14536934 -0.22346932 -0.14111476 -0.18187965 0.20392193 0.15833221 -0.14365593 0.03302043 -0.19863816
dead -0.12314314 -0.028111527 0.100471035 -0.047294665 0.0070025204 -0.114823 0.0724174 -0.00831489 0.102212854 -0.0044690818 0.11802797 -0.023319108 -0.015744625 0.06929907 -0.090550706 0.11918488
budget -0.0701403 -0.09342026 -0.029620398 -0.07442358 -0.037647698 -0.06561257 0.099705234 -0.12020364 0.07144889 0.076928146 0.11999536 -0.004238939 -0.080459096 0.12012187 -0.08848695 0.054754842
try 0.0022541399 -0.013265126 0.089498386 0.028226083 0.0043863393 0.036905028 0.044995163 -0.06301172 -0.0039045285 -0.030826896 0.043232925 -0.020793404 -0.017688649 0.00548875 -0.04735429 -0.022320159
performances 0.049805317 0.044098657 0.118430786 0.12181188 0.06599143 0.09302548 -0.14097555 0.06441903 -0.06340925 -0.10750991 -0.021988656 0.013624227 0.07134782 -0.10915685 0.08255858 -0.062986776
wrong -0.04599562 -0.086494 0.09982521 -0.03213874 -0.0359401 -0.01569375 -0.016497925 -0.04102764 0.03852069 -0.01997576 -0.033659395 -0.020039476 0.036911767 0.030652873 -0.1252103 0.014447282
classic 0.027590463 -0.021929402 0.0488683 0.015017635 0.0083705345 0.020797366 0.019029606 -0.009704314 -0.083070256 0.056829836 -0.039494626 0.022087917 0.005264483 -0.1054461 0.06693279 -0.088331394
boring -0.08225374 -0.11674339 0.0018371686 -0.11700747 -0.0815517 -0.106570944 0.11680793 -0.049836535 0.043224275 0.026168983 0.1192445 -0.01717468 -0.095030434 0.077600695 -0.03470684 0.14512016
enjoy 0.045873642 -0.013319515 0.064396694 0.010120059 0.0930713 0.055181824 -0.02113229 0.039838854 -0.049376 -0.09139558 -0.124531105 0.022866338 0.07431762 -0.0038018313 0.023701815 -0.0534283
need 0.034921005 -0.0010338653 -0.06865836 -0.027866216 -0.026952457 0.021468764 0.055577178 -0.019211745 0.003139117 0.08101497 -0.043567777 0.086852364 -0.023263551 -0.02137159 0.015127394 0.013848296
rest -0.024675943 -0.053185955 0.022384042 -0.023113972 -0.030554688 -0.10647981 4.265453e-05 -0.046437446 0.07171569 0.042015787 0.051996846 -0.03362355 -0.061222967 0.08477178 0.0119186565 0.06997179
use 0.087740496 0.0018655284 -0.07087145 0.04101236 -0.00328548 0.047685593 -0.012771715 0.028027752 -0.018395584 -0.003108699 -0.082500294 0.028909186 0.03570762 -0.084902264 0.0675471 -0.05184037
kids 0.035982266 0.007354237 -0.082729466 -0.014913433 0.042499006 -0.023360934 -0.019795155 0.06713198 -0.025418648 -0.03737936 -0.076038145 0.04901452 0.01712054 -0.014227225 0.05726489 0.003860768
hollywood -0.01560361 0.052079394 -0.0066943136 0.057975717 0.0045503066 0.008266807 0.036192168 0.008547848 0.03681476 0.011629728 -0.024235263 0.026243966 0.028828759 -0.037379675 0.020227194 0.036921013
low 0.037430182 0.049959753 -0.11931446 -0.07265438 -0.11459512 0.012611734 0.110020965 -0.0337677 0.011361946 0.087421395 0.013602344 -0.04110521 -0.11103697 -0.022171577 0.004506665 -0.0009913032
production 0.004238166 -0.026915597 -0.008813369 -0.011832522 -0.04376855 -0.009391041 0.032495156 -0.031025575 -0.005666434 0.042969927 -0.034473315 -0.012321493 -0.029133517 -0.010328217 -0.029875964 0.060555886
until -0.029998783 -0.047852386 -0.042871725 -0.032942332 -0.01713054 0.033973314 0.05726802 -0.011819723 0.04370193 0.029397054 -0.01747463 -0.021401016 0.008224375 0.0036327918 -0.008847312 -0.021830766
along -0.014038009 0.028378984 0.020994827 0.046614 0.02369815 -0.039435614 -0.031780493 0.010027491 0.009463998 0.009053078 -0.045890387 0.02639567 0.08237501 -0.0051119854 -0.025689466 -0.0037354953
full -0.03643316 -0.024758829 -0.0799152 -0.061161444 -0.018110031 -0.028360276 0.08297396 -0.0144190565 0.021257734 0.03236472 0.061045177 -0.0031480654 -0.019378811 0.06074228 -0.009081679 -0.00015596658
friends -0.03721588 -0.041175105 0.041288797 0.023821902 0.04959522 -0.034745235 0.01836178 -0.02064883 0.024811111 -0.0077945963 0.04216597 0.031163529 -0.011423357 0.060678568 0.023482991 0.0438575
camera 0.08881806 0.002659302 -0.06475797 0.024469733 0.0884629 0.050405346 -0.07740253 0.03570405 -0.025351413 -0.07168993 -0.09001972 0.056215137 0.018202411 -0.1050951 -0.027958654 -0.090626545
truly -0.00217561 0.0029871776 0.16490985 0.0005639144 0.050446425 -0.05069636 0.03583953 -0.058412544 0.09749317 0.013683504 0.027481176 -0.06646013 0.038559373 0.03689081 -0.05353022 0.09189001
women -0.08285195 -0.09497524 -0.011261822 -0.05875134 -0.07078868 -0.046277016 0.10425883 -0.0104631055 0.035035025 0.07553725 0.11031137 -0.07947707 0.0125173405 0.09845402 -0.02486963 0.13406254
awful -0.15496962 -0.1302522 0.09913636 -0.087163694 -0.1311985 -0.16825807 0.1714781 -0.1686646 0.15324634 0.17525414 0.09818291 -0.092534095 -0.16269842 0.17430358 -0.05716408 0.19853392
video -0.015333704 -0.08394949 -0.11706444 -0.05154745 -0.0715345 -0.032804877 0.08605755 -0.07514018 0.05953133 0.10167403 0.049009398 0.0058189067 -0.115658894 0.06045167 0.038913123 0.049403697
next 0.043762125 0.05148999 0.0058582695 -0.047282156 -0.05402407 -0.024147931 -0.005202513 -0.009512896 -0.013715633 0.009475844 -0.023632804 0.070801795 -0.037061073 0.011500487 0.057311397 0.019037222
tell 0.008268655 0.010148219 0.05241933 -0.018466083 -0.028577449 -0.076884836 -0.037237722 -0.06683093 -0.00092005235 -0.033903845 0.08424911 -0.060001798 0.014833285 0.06440566 -0.055599142 -0.0050885137
remember -0.035190463 -0.06167919 0.055921458 -0.046256512 -0.017329194 0.0119907865 0.00821734 0.00839863 0.08829141 0.038045805 0.02085778 -0.0016318203 -0.07935106 0.051750712 -0.0016789759 -0.0038671813
couple 0.08237398 0.085454404 -0.037980415 -0.043145232 0.012146339 0.083666846 0.023853712 -0.032111324 -0.03055597 0.014614503 -0.05577913 0.065472685 -0.036719993 -0.030800318 0.0741907 0.016156709
stupid -0.0832141 -0.12002077 -0.04102564 -0.06556958 -0.08986275 -0.1474956 0.068048686 -0.13846609 0.13075122 0.16241045 0.14717738 -0.03077152 -0.11299358 0.08910871 0.027781898 0.12010926
start -0.052032713 -0.017771851 0.06334555 0.08377334 0.025769154 -0.07098692 -0.018905146 -0.009058047 0.0027901689 -0.087205 0.042626366 -0.005247157 0.050498195 -0.04401745 -0.045301847 0.04072977
stars -0.09629516 -0.16403893 0.1267511 -0.043126095 -0.011345445 -0.06306645 0.08482271 -0.09214777 0.010018796 0.07562186 0.097810075 -0.037194934 -0.043322973 0.07260306 0.044396494 0.0528754
perhaps 0.063269384 0.06489549 0.0870258 0.11286175 0.08189756 0.010850082 -0.029769594 0.10819238 -0.10620448 -0.077345334 -0.03949818 -0.011488136 0.074859805 -0.093928084 -0.06663303 -0.057792533
sex 0.05245369 0.047613896 -0.07612464 -0.011481506 -0.052926272 0.063837364 0.006486767 0.040342808 -0.0301983 0.04041697 -0.0619745 0.025472429 -0.0190068 -0.05072137 0.027393883 0.017462151
mean -0.05235791 -0.03485455 -0.045325823 0.014576594 0.03975256 -0.105002865 0.006792236 -0.07818605 0.012200147 0.049991146 0.0354285 -0.03922713 -0.057717077 0.049971234 0.006599267 0.10527164
came -0.082423605 -0.035700098 0.038091637 -0.06178913 -0.092344835 -0.08390903 0.081441626 -0.054343723 0.08776165 0.0003727976 0.04652609 -0.025522823 -0.052247558 0.059458014 -0.06649936 0.06321429
recommend 0.0060881884 0.03526323 0.02281513 0.0475405 0.08285307 0.018044688 -0.039083585 0.09742888 -0.027789783 -0.08820106 -0.01480613 0.03972521 0.10485412 -0.093205236 -0.0045264093 -0.050953917
let -0.011623904 -0.026935175 -0.0947608 -0.08308504 -0.076334625 -0.04885818 0.059188876 -0.04520027 0.051587548 0.010066513 0.07848557 -0.012353124 -0.008464557 0.07984723 -0.041564036 -0.013238931
moments -0.043755867 -0.025709102 0.026280083 -0.1121857 -0.036162402 -0.006066128 0.04461582 0.027047275 0.062813744 0.04662338 0.022936096 0.0043320064 -0.004784485 0.07619437 -0.05371927 -0.005053641
wonderful 0.13275582 0.14872299 -0.02353418 0.11408111 0.08179768 0.17679016 -0.16256855 0.1216672 -0.1289259 -0.10516418 -0.18699893 0.12141098 0.08051215 -0.105934195 0.052689593 -0.16285172
episode 0.008394487 0.0074865236 0.1506185 0.03797482 0.071860254 -0.034030367 -0.053781554 0.024432484 -0.011819808 0.008806468 -0.027639808 -0.032652657 0.01792659 -0.023234487 -0.035834365 0.0050982637
understand -0.050519522 -0.018765846 0.06220865 -0.013076641 -0.00831354 -0.0009180739 -0.028456055 0.045782708 0.059273653 0.002118562 -0.020960866 -0.001495576 0.029616723 -0.036644187 -0.030583484 0.0006968641
small -0.030391224 -0.06277595 -0.03727428 -0.054644838 -0.0686197 -0.023000741 0.02039697 -0.0886837 0.07642861 0.08299926 -0.010672747 -0.028337099 -0.055989277 0.036612026 -0.016002234 0.051627047
face 0.06651742 0.062740594 0.063786305 0.09548774 0.00730639 0.062424544 -0.038960937 -0.0017225535 -0.02761153 0.04000252 -0.08482247 -0.00016367051 0.024880335 -0.07901392 0.072736934 -0.04360288
terrible -0.06748696 -0.14076094 0.070815206 -0.096953705 -0.059211534 -0.097019576 0.07400046 -0.12304589 0.075717 0.038259316 0.10903047 0.0052397694 -0.047022622 0.10265754 -0.038662076 0.048245158
playing -0.011301618 -0.040841877 0.04373496 0.06852971 0.04166526 -0.023118937 -0.062138233 0.021906884 -0.026851498 -0.039402038 -0.05135874 -0.019310405 0.02707789 -0.075648636 -0.05016125 -0.052762218
school -0.014665807 0.021814385 0.039794896 0.019373596 0.004990004 -0.00085256255 -0.028866982 0.01432981 -0.063249946 0.038227174 0.035738397 0.07268553 0.044929173 -0.029036561 0.041319817 0.0016916298
getting -0.0079972735 -0.010083311 -0.028231261 -0.031812925 -0.091521285 -0.02532507 0.0016549644 -0.005084714 0.048302185 0.0077939103 0.012127502 -0.010302712 -0.07134215 -0.0060329284 -0.029584222 0.010231573
written -0.1461334 -0.12809435 0.010467811 -0.10554863 -0.093987785 -0.09713066 0.041182537 -0.052573185 0.116704084 0.12060289 0.061242234 -0.009319581 -0.084981054 0.06039852 -0.059545334 0.089066416
doing 0.05758825 -0.009401092 0.046643034 -0.036567084 -0.0055912235 -0.0213926 -0.036719907 0.014568692 -0.009838006 -0.02691198 0.020070024 -0.01321888 0.000996453 -0.032406043 -0.0069695255 -0.017057851
often 0.049499903 0.07113436 -0.083436005 0.020363955 0.066555925 0.051757768 -0.09379445 0.07073325 -0.117831685 -0.043241747 -0.1067524 0.07169463 0.092240855 -0.06581839 0.0882475 -0.030571235
keep -0.0065608905 -0.012343596 0.02682176 -0.0114879245 -0.057274766 0.003313158 0.023633849 -0.04627883 -0.013316321 0.034644786 0.014690595 0.027602576 0.021330392 0.052734926 0.007461992 0.03941677
early 0.10921472 0.07423291 0.05764554 0.05097453 0.055832725 0.098286316 -0.07376413 0.057087235 -0.06075215 -0.1218068 -0.08282477 0.048605762 0.078085646 -0.098563634 0.0668895 -0.122436404
name -0.06193618 -0.11100287 -0.0630755 -0.14362717 -0.019121075 -0.061590314 0.12224978 -0.06606079 0.083448716 0.109501466 0.039116267 -0.037770752 -0.09494007 0.12870628 -0.034693904 0.09203321
perfect 0.038560815 0.012118835 0.1248893 0.056374177 0.09815793 0.0815469 -0.061685126 0.09375403 -0.031545334 -0.059663635 -0.1168627 -0.00717095 0.06840715 -0.10246072 -0.07050698 -0.09984242
style 0.009872372 -0.029029127 -0.0103014195 -0.0045288713 0.022154434 0.06410873 -0.029105341 0.019918261 -0.021375608 -0.030664342 -0.08744421 0.0053578424 -0.009139828 -0.08662822 -0.0024994079 -0.03462515
human 0.10779013 0.0374613 0.051567715 0.0949768 0.023421507 0.08371935 -0.045896836 0.12329348 -0.07186971 -0.078668796 -0.08320614 0.0022829773 0.05211157 -0.09705191 0.016349444 -0.046856962
definitely 0.12044024 0.043562282 0.056383956 0.12370972 0.09027074 0.1336032 -0.08770949 0.07805104 -0.14523746 -0.09044729 -0.14917403 0.093889065 0.13904557 -0.17965026 0.041194703 -0.13021027
gives 0.11211678 0.058996864 -0.015405336 0.09655971 0.0013777721 0.11231282 -0.08551762 0.058942534 -0.057645548 -0.11764565 -0.12421723 0.044522997 0.012771262 -0.10717521 0.06785569 -0.14946266
others -0.033423457 -0.0029730983 0.17046273 -0.016124416 0.03554779 0.007542416 -0.002320296 -0.037103284 -0.004779833 -0.04143426 -0.031675138 -0.043442182 0.061365385 -0.0045221243 -0.044659358 0.027769614
itself -0.036924023 -0.060822017 0.066884495 -0.09187137 -0.046664324 -0.11403419 -0.014961755 -0.03226022 0.07559592 -0.010321727 0.113071576 -0.059208967 -0.042956464 0.061221335 -0.09344803 0.07266816
lines 0.00778044 -0.06968253 0.07372123 0.006946741 0.033179067 0.030032387 -0.006973096 0.044459675 -0.013154161 -0.025131553 -0.0089187 -0.031602763 0.06558013 0.032990366 0.013671068 0.06199878
live 0.031358413 -0.022019938 0.037298933 0.13558975 0.043273855 0.07469372 -0.09230832 0.03361192 -0.01575635 -0.02501585 -0.048232846 0.06422926 0.10592432 -0.013364828 0.10422795 -0.07353371
become 0.020205813 0.017846078 0.08987052 0.008832393 -0.051674817 0.021855837 0.0027719832 0.026871068 0.009922812 -0.061736252 -0.027267866 -0.055099186 0.0044240532 -0.028222505 -0.060452137 -0.029667746
dialogue -0.061980538 -0.027339209 -0.044249725 -0.010813697 -0.022432012 -0.016138509 -0.029182194 -0.011252374 0.0023378045 0.054394495 -0.0036602095 -0.00041658257 0.03769112 -0.0122846635 0.026858963 0.0012672552
person 0.03273383 0.02440238 0.07498408 0.07795365 0.02076631 -0.027744642 -0.06381829 0.028299294 -0.037061866 -0.07568568 -0.011198704 0.019742554 0.1251175 -0.08959541 0.01957491 -0.022199089
lost 0.0021300763 -0.0053467834 0.037115924 -0.006808017 -0.054236427 -0.034279622 0.040732495 -0.021116734 0.053367417 0.11596501 -0.008225007 -0.021704495 -0.051399432 0.10031207 -0.08693217 0.0511621
finally -0.059939653 -0.076119654 -0.029063834 -0.050673537 -0.029024554 -0.07512411 0.06770653 -0.084359296 0.081141874 -0.002394534 0.08746782 -0.075225666 -0.037184585 0.05580046 -0.09115276 0.056985386
piece -0.17149042 -0.10045444 0.096396916 -0.017779065 -0.058167737 -0.13839915 0.07023865 -0.071769364 0.039459307 0.081334665 0.17259853 -0.07256342 -0.15503202 0.14856105 -0.042035274 0.12787208
head -0.049050637 -0.031858183 0.07795667 -0.0014402334 0.06314615 -0.044092517 0.035493888 0.0046865074 0.0049327672 -0.018875454 0.037920684 -0.05215554 -0.032682274 0.04150172 -0.0066992277 0.060866654
case -0.07616371 -0.0036221382 0.10063295 -0.016937237 -0.049473707 -0.0734747 0.016883451 -0.08210629 0.07541672 0.004120006 0.0006060211 -0.08736961 -0.009459155 0.039059833 -0.012936566 0.023037551
felt 0.03970875 0.044918384 0.04843096 0.039498173 -0.005324317 0.0055541056 0.047339886 -0.037156723 -0.0653522 0.01984066 -0.024671292 -0.03926056 -0.032298263 -0.0759431 -0.036472257 -0.069413625
yes 0.0042750165 0.0128674125 0.015267132 0.06124925 0.00041571524 0.05682902 -0.0034067964 0.059379425 -0.057885226 0.008586852 0.020637568 -0.010156576 0.052018613 -0.07654525 -0.012286538 -0.02769921
liked 0.111157104 0.02417742 -0.066072494 0.059975572 0.015530447 0.08405 -0.007775329 0.05007447 -0.08350806 -0.08885124 -0.081313185 0.12041048 0.07870678 -0.07724262 0.08920754 -0.11500898
supposed -0.09810347 -0.11116279 -0.06635148 -0.10163594 -0.092270434 -0.12174783 0.07050728 -0.15272331 0.12419174 0.15606582 0.07472325 -0.05019791 -0.09701767 0.09539572 -0.05096239 0.1528491
title 0.036744628 0.035421308 -0.083530456 -0.050730035 -0.050526388 0.032886438 0.033983212 -0.07650486 -0.01886882 0.05548345 0.020600501 0.061840303 -0.10328297 0.0132638505 0.04028209 0.052598253
couldn't -0.04272198 -0.0950944 0.044211973 -0.042630512 -0.08474945 -0.0889219 0.085932314 -0.05340337 0.07258014 0.03348991 0.10797973 0.0083599575 -0.04720262 0.03768046 -0.03670913 0.03606345
absolutely 0.012584871 -0.002564274 0.016566873 0.08061222 0.065535046 -0.0009832816 -0.10521304 0.041635334 -0.096500985 -0.07885272 -0.096911564 0.08943444 0.058558825 -0.0635384 0.018586034 -0.03870437
white 0.0875643 0.04865025 0.06426355 0.07363133 0.058130205 0.029496301 -0.08761005 0.07026955 -0.03407153 -0.109529644 -0.031106368 0.0012736786 0.06537997 -0.09353488 0.01235762 -0.1041267
against 0.04194617 0.0021069036 0.02849693 0.05708246 0.052641634 0.047071446 -0.03824715 0.088351525 -0.015227088 -0.060881253 -0.050459284 -0.014132604 0.048956256 -0.05060741 -0.044095423 -0.0035850252
boy 0.12465161 0.09370163 0.07602183 0.1203961 0.10778547 0.10538478 -0.083689004 0.10750571 -0.10977983 -0.09738298 -0.09218102 0.08271465 0.072633 -0.08831579 0.0090439385 -0.12982503
picture 0.11539375 0.0597906 0.06874839 0.11953718 0.13053837 0.067461215 -0.1152539 0.10393623 -0.10337433 -0.05898967 -0.05944835 0.049063396 0.05828485 -0.050789554 0.06229079 -0.041825935
sort 0.082940996 0.09441771 0.053585798 0.12306601 0.07444412 0.09325418 -0.118987 0.13340762 -0.065301046 -0.05676479 -0.110851 0.07281627 0.09157147 -0.07557196 0.061854832 -0.058086228
worse -0.05374419 0.009366807 0.045245428 -0.003268939 -0.021220002 -0.06647764 0.026044928 -0.08315838 0.020787027 0.028115872 0.072636865 -0.00928964 -0.06619827 0.037020613 -0.031288695 -0.0013469572
certainly 0.10273693 0.032812268 -0.09011009 0.01790717 0.032883037 0.038923677 -0.11283347 0.12846312 -0.07150618 -0.06279222 -0.086534366 0.07716827 0.104516335 -0.04208456 0.013101185 -0.08244291
went -0.0866663 -0.14415325 0.09455904 -0.03324978 -0.025290271 -0.078272894 0.14526075 -0.06267324 0.14916277 0.09066311 0.14709404 -0.10822677 -0.052723534 0.120066 -0.12147125 0.15554358
entire -0.031642385 -0.060305603 -0.07756341 -0.027627133 -0.04599315 0.008071223 0.07367825 0.0037108983 0.05332173 0.09078933 0.02104509 0.06229521 -0.11133161 0.052971385 -0.017818742 0.07085208
waste -0.17458236 -0.19599847 0.19670415 -0.18371852 -0.0071934443 -0.24013692 0.20035781 -0.1068275 0.15787424 0.19116288 0.21143061 -0.065897584 -0.20262007 0.25016493 -0.09201527 0.22939037
cinema 0.034985885 -0.04355356 0.1260869 0.0024118766 0.035076678 -0.0108100595 -0.040178344 -0.02445757 0.023368081 -0.057077248 0.015382416 -0.018039372 0.08459824 -0.0128325485 0.0265024 -0.040313058
problem 0.02088721 0.061917044 0.10569284 -0.013261576 0.037523247 0.005411243 -0.076142386 -0.003313135 -0.04492899 -0.022907373 -0.03268498 -0.008561358 0.09390519 -0.018216679 -0.046446033 -0.047955837
hope 0.06100815 0.08693443 0.009004406 0.007044441 0.042503014 0.051762894 -0.050804894 0.04182112 -0.063239776 -0.091640495 -0.018540036 0.020617308 0.008431187 -0.0013895994 0.07603642 -0.08384314
entertaining 0.028617198 -0.038285647 -0.042991616 0.012364604 -0.010820968 0.01953594 -0.015863104 -0.05676743 0.024244038 -0.00086843723 0.018690055 0.025448715 -0.029652435 -0.01514626 -0.01747199 -0.009001609
she's -0.042669877 -0.039241664 -0.007700194 0.024820603 -0.045868717 0.036990277 0.02528452 -0.037422813 -0.00014570409 -0.014864703 0.017364709 -0.008078145 -0.0002055753 -0.011187142 -0.025914337 0.0512891
mr 0.12482563 0.07508063 -0.015154078 0.1388857 0.07654799 0.040371154 -0.13913748 0.054296315 -0.08923442 -0.073967144 -0.03463012 0.040696222 0.10541103 -0.13337065 -0.0043989373 -0.041828558
overall 0.041018855 -0.0013423391 0.00021875619 -0.0006474397 0.032824036 -0.0065192645 -0.04589068 -0.023457458 0.0070520816 -0.0060589677 -0.044159785 0.028576149 0.05464355 -0.011043685 -0.016229197 -0.034504868
evil -0.07474827 0.018422848 -0.0037078818 0.02078391 0.03235046 -0.0076706945 0.0525543 -0.06046585 0.01251103 0.022969343 0.036648385 -0.08664637 0.01340692 -0.031080505 -0.06592095 0.04466196
called -0.057425264 -0.048021995 0.052538976 -0.011678321 -0.047052667 -0.03076412 -0.024652608 -0.04870629 0.0150581 0.012199321 0.0022492253 0.011856944 -0.011720755 0.0019953672 -0.047036186 0.0729818
loved -0.028022377 0.02102128 0.09755166 -0.001049672 0.020930689 -0.045458835 0.0035341114 0.026488677 0.06690711 0.03787838 0.03717422 0.028066657 -0.02975818 0.035847854 -0.012345562 0.05694229
based -0.0335097 0.013636771 0.010324664 0.030792838 0.025410118 0.0056807427 -0.012722293 0.049666993 -0.047692057 -0.044445332 0.008254302 0.0004293995 0.017308785 -0.030072 0.04847906 0.04154657
oh -0.03950751 0.02500712 -0.066409424 -0.08579443 -0.10409151 -0.011301849 0.0504717 -0.0444429 0.025954442 0.026805084 0.052946102 -0.0072089103 -0.027032891 0.054503977 0.020204514 0.052290272
several -0.035477586 0.056343935 0.008169092 0.03788688 0.0021473889 0.030834205 -0.028223248 0.05326263 -0.023670042 -0.022068223 -0.0065786666 -0.0041402765 0.044109933 -0.032251775 -0.08332529 0.01771179
fans -0.01380868 -0.052027673 0.08279109 0.025903141 -0.031148175 0.02730415 -0.020601902 0.017982032 -0.043410726 -0.05724605 0.036405478 -0.010615756 0.058205243 -0.06286495 -0.0038457531 -0.017152427
mother -0.010495189 -0.062477574 -0.029574277 -0.04306956 0.021203225 -0.014823184 0.0095458105 -0.017651021 -0.0068497015 0.043079767 -0.035088524 0.076180905 0.030372668 0.012898234 0.06792257 0.038078655
drama 0.0025950735 0.03503746 0.09008425 0.073372744 0.04460662 0.03755221 -0.021008013 0.04966793 0.007905042 -0.047915723 -0.017570253 -0.017614987 0.03225392 0.01996141 0.02125578 0.012353153
beginning 0.012431156 0.06398749 0.06285647 0.071432345 0.06982233 0.012000778 -0.034081187 0.08996316 -0.031636484 -0.08641345 -0.009989261 -0.026321856 0.025261715 -0.052991617 0.01788513 -0.10615302
killer -0.008623455 0.014723916 0.0759203 0.007089894 -0.015368459 0.08183718 -0.00723707 -0.019921005 0.020783624 -0.04772828 0.010305372 -0.029673558 0.032139942 -0.0042351075 -0.068361774 0.027655073
lives -0.07647887 -0.0855679 0.120770395 0.00044992697 -0.019441267 -0.044214036 0.020169046 -0.056142624 0.010032612 0.05918816 0.042418 -0.0071803746 -0.014401646 0.016205268 -0.0999022 0.06491009
5 0.05660069 0.054884944 -0.01587202 0.09007639 0.022546263 0.08744324 -0.018374052 0.10401095 -0.10630807 -0.027194506 -0.042873338 0.068347946 -0.0036996792 -0.10970267 0.12162473 -0.12076717
direction -0.0443132 -0.017060345 -0.03481291 -0.033217378 -0.022338161 -0.05307688 -0.040883515 -0.06262168 -0.016448904 -0.011882136 0.061300445 -0.009248757 0.018234862 0.06245444 0.042772613 0.0015219774
care -0.002956938 -0.06328482 0.004088428 -0.019432273 -0.005795702 0.00029034904 0.0449443 -0.05766105 -0.027168658 0.07218223 -0.019125644 -0.014312663 -0.076156005 0.01023301 0.0060938704 -0.03094768
already 0.028240716 -0.0010122178 -0.0326628 0.056689415 0.0673113 -0.015908703 -0.01385047 0.028355846 -0.03560397 0.021470902 -0.011008735 0.08834904 0.014097658 0.03846184 0.12651141 -0.029137237
becomes 0.037697077 0.11628242 0.049775887 0.07441362 0.10503302 0.031984042 -0.038005643 0.070690915 -0.025770968 -0.10628391 -0.0425463 0.03985638 0.0949428 -0.10043143 -0.011336 -0.12572181
laugh 0.039448608 0.040183082 0.01407476 0.0141341025 0.05129559 0.060386084 -0.02489359 0.051462043 -0.020108692 0.0175785 -0.00094477646 0.041350003 0.07178267 0.004973785 -0.005165859 0.031681154
example 0.0077134334 0.023978122 -0.035788514 0.04926463 0.038566936 0.07633779 -0.06064707 0.103695914 -0.06100123 -0.090077356 -0.0640025 0.038278937 0.05554669 -0.09098154 0.005521722 -0.098672666
friend 0.14618927 0.09909424 -0.03644102 0.15208411 0.12242165 0.108783424 -0.14481884 0.12146275 -0.104352556 -0.10835145 -0.19159077 0.157206 0.16842577 -0.1047409 0.13289689 -0.16709197
dark 0.05569594 -0.01483091 0.07532646 0.018913336 -0.03429449 -0.03781028 -0.0045544417 -0.0032382535 0.010026934 -0.04003394 0.04102763 -0.04221275 0.020920038 0.037529755 -0.020676116 0.021647347
despite -0.027392665 -0.029998915 0.0589221 -0.04426339 -0.004708277 -0.08632876 0.06501345 -0.08423385 0.09106735 0.05434189 0.026488367 -0.04889211 -0.017580463 0.06274806 -0.10604893 0.0846091
under 0.0016026058 0.019053495 -0.05687795 -0.027669113 0.03542532 0.090228215 -0.067358375 0.0574407 -0.016797354 -0.011623527 -0.0034085095 0.08987523 0.032772295 -0.059262052 -0.0003635361 -0.0695078
seemed 0.050992172 0.08706466 0.19089721 0.07470083 0.09356336 0.032584593 -0.051761348 0.08583829 -0.026339374 -0.13204998 -0.1087771 -0.023948234 0.14793533 -0.07222784 0.0039171185 -0.082156405
throughout 0.025664967 0.002588729 0.021100108 0.0011146585 0.08316156 -0.022251407 -0.05850252 -0.00066249445 -0.042228118 -0.006050976 -0.05402543 -0.014109442 0.015903525 0.00805287 0.011235056 -0.037052035
4 -0.09463351 -0.1808502 0.102002576 -0.060942218 -0.07745203 -0.107373044 0.13483374 -0.09643643 0.14849977 0.113610156 0.10959413 -0.06364382 -0.036327727 0.14952688 -0.03902966 0.08869406
turn -0.05084929 -0.069988236 -0.028832898 -0.06697752 -0.049911767 -0.049765762 0.00631645 -0.030948834 0.004991884 0.029993864 0.067307174 -0.047470264 0.0014627776 0.019189876 -0.0082922345 0.07402406
unfortunately 0.035415992 -0.0071519385 -0.0075266324 0.023796892 0.03122891 -0.06079506 0.012288396 0.030513754 -0.0377863 0.06251036 -0.036371548 0.03900457 -0.05112988 0.0063736327 0.053431373 0.045642927
wanted -0.03869448 -0.05881813 0.105239354 0.025527189 0.03891334 0.023483183 -0.0053148363 -0.006954025 0.022068363 -0.03803148 0.037690427 -0.023795288 0.05214821 0.010879823 -0.021058995 -0.005047027
i'd 0.09937561 0.11974578 0.07156407 0.0907313 0.114636965 0.13586386 -0.10740152 0.10454073 -0.07245591 -0.15436953 -0.109119296 0.08085421 0.12509142 -0.18920775 0.11397603 -0.101532385
 0.08361527 0.050109003 0.021429367 0.0618768 -0.003467569 0.080750965 -0.021560721 0.05941801 -0.03411442 -0.026626145 -0.033376236 0.054010525 0.04159502 -0.08864496 0.00032013076 -0.039531887
children 0.052169897 0.034112822 0.03189064 0.057095446 0.010116558 0.062261175 0.05179939 0.016961263 0.00986347 0.080198675 -0.07346886 0.062141363 -0.063813135 -0.06261048 0.0063907383 0.01595963
final 0.111282915 0.022748636 0.08962573 0.05242378 0.05546259 0.09805061 -0.06486326 0.12614411 -0.05611259 -0.14083593 -0.12530187 -0.016418109 0.121348135 -0.12957433 -0.057753522 -0.08501589
fine 0.115275495 0.043027587 -0.062953174 0.03311178 0.14279483 0.12773256 -0.15721847 0.14782147 -0.08778088 -0.10699888 -0.110940225 0.12142398 0.12516756 -0.123175524 0.1152889 -0.11419974
history 0.03880406 0.046616487 0.11289373 0.07314301 0.053759526 0.0008810111 -0.024519725 0.06851381 -0.030963488 -0.025635341 -0.06480344 -0.02975922 0.034413725 -0.0071864 -0.012974646 -0.07166385
amazing 0.16281244 0.04790894 -0.103131816 0.061431844 0.13359725 0.12991282 -0.072307736 0.07894813 -0.182007 -0.054122128 -0.11159073 0.11684608 0.060474638 -0.06175048 0.14136562 -0.14576459
sound 0.046121128 0.084451534 -0.026642652 0.018266317 0.060614984 0.098099515 0.016509196 0.0033420154 -0.09552764 -0.05679912 -0.028704757 0.09830878 -0.027569262 -0.031886436 0.062174022 -0.06783397
guess -0.16574676 -0.09017788 0.1403131 -0.07495336 -0.07922107 -0.05792424 0.1407038 -0.12673686 0.09863748 0.0168573 0.12362417 -0.13523625 -0.117390916 0.10265402 -0.09527546 0.17229
heart 0.105565615 0.09511232 -0.045097657 0.013806944 0.018130586 0.034980066 -0.034747403 0.028628994 -0.05150435 -0.010661368 -0.073983006 0.029704632 0.014434227 -0.06869014 0.09214705 -0.0437401
totally -0.095815465 -0.06896267 -0.11376487 -0.05421449 -0.01589808 -0.010606804 0.0041896827 -0.007597756 0.052832067 0.0278758 0.025897978 0.0251425 -0.09244593 0.0007933129 -0.010974046 0.043763433
lead 0.11125731 0.034631547 0.028505312 0.026556006 0.09071465 0.034971032 -0.050464023 0.076937005 -0.08448563 -0.11850979 -0.11372471 0.01921101 0.09875258 -0.11021991 -0.0048957416 -0.057444695
humor 0.05460997 0.06415624 -0.0046340646 0.09172131 -0.013089864 0.049867157 -0.057355855 0.095011435 -0.049170114 -0.033634786 -0.019756347 -0.0073174783 -0.009486594 -0.10974315 0.040602997 -0.10841886
writing -0.047405522 0.010281796 -0.03290085 0.005487604 0.006511969 -0.017353887 0.04245104 -0.07461444 0.06186158 0.068818755 0.06419811 0.008088625 -0.029752342 -0.02153216 0.029575307 0.041184258
michael 0.08047533 -0.014010546 -0.0057448377 0.046971284 0.028419307 -0.0046032737 -0.023596404 0.08229653 -0.0061595347 -0.04473419 -0.07012241 -0.0056711864 0.009152015 -0.07504203 0.014270345 -0.009216558
quality 0.002078045 0.057047132 -0.011575798 0.035436865 -0.0027477636 0.06008018 0.011242692 0.059746232 -0.08558912 0.03918872 -0.002753671 0.0845839 -0.01555264 -0.013132173 0.0006746317 -0.066805646
you'll -0.049038924 0.0103929015 -0.014060439 0.0041960943 0.02105471 -0.010281697 -0.023917409 -0.026768489 0.008342074 0.017030038 0.012943894 -0.02813969 0.019454667 0.027504278 0.014815963 0.032230686
close 0.0848178 0.09044224 -0.044603437 0.002907439 0.07030613 0.07346214 -0.03056515 0.09483872 -0.115041345 -0.06688515 -0.13413225 0.06375159 0.12185056 -0.12875432 0.05245133 -0.07371853
son -0.008249566 0.058309942 0.075658135 -0.0069799307 -0.023189211 0.049171496 0.004069935 0.043948647 -0.04364957 0.008440844 0.028765094 -0.05359651 -0.015743416 0.0034777261 0.012506929 -0.045519438
guys 0.006731616 0.009058243 -0.046576463 -0.0051342538 -0.029904066 0.013787039 -0.0013479053 -0.036753368 -0.006715463 0.025144177 -0.024346324 -0.011251745 -0.034064963 0.039524313 0.04657437 0.022422498
wants 0.08198509 0.016115764 0.0035659773 0.0570807 0.048487075 0.009460556 -0.024000892 0.040505897 -0.056788158 -0.023157813 -0.081051365 0.014521696 0.03212964 -0.0431151 0.025689531 -0.034638632
works 0.15042335 0.112671256 -0.02567008 0.19191925 0.17091118 0.212031 -0.2009616 0.17526262 -0.163367 -0.14384194 -0.12611648 0.16060673 0.11251267 -0.13933103 0.038228616 -0.18688534
behind -0.02501603 -0.022914357 -0.058545876 -0.06861465 -0.014218927 -0.028487127 0.08220629 -0.08790269 0.010428767 0.019587742 0.017825376 0.06630701 -0.05482704 0.004596508 0.055797108 0.020049438
tries -0.03683804 -0.04198135 -0.036594532 -0.06876265 -0.042483374 -0.061815966 0.026202371 -0.010021837 0.05968274 0.023480283 0.010136895 -0.048276022 0.0022270181 0.011364952 -0.049896013 -0.016699724
art 0.012486053 -0.025740204 0.15061826 0.05127866 0.03418883 -0.0736607 0.042061556 0.019628303 0.076410785 -0.012044647 0.006718851 -0.06849213 -0.00029488062 0.06407173 -0.06621495 0.016744692
side 0.039683953 0.053155206 0.051401585 0.03738115 -0.0032465863 0.01519702 -0.09383559 0.11227484 -0.07756379 -0.087887526 -0.04153328 0.013683973 0.02315762 -0.070502445 -0.076164946 -0.09565006
game 0.02961128 -0.07269592 0.006117332 -0.02776793 -0.03679633 -0.045147266 0.0005844454 -0.019072488 0.05727626 0.049603596 0.011118159 -0.031719115 -0.008042765 0.0112043405 0.0213659 -0.02242649
past -0.02159148 -0.008316132 0.05869406 -0.037002426 -0.048459705 -0.011448365 0.04045385 -0.014405463 0.09012173 0.082560934 0.034107853 -0.035949964 -0.04168717 0.043627013 0.010301755 0.06893492
able 0.045924786 -0.029626865 0.050093792 0.05114089 -0.04576442 0.03694789 -0.0005753266 -0.043788005 0.020220535 -0.00318451 0.042184997 -0.06497456 -0.021603685 0.0016722379 0.031928204 0.02418923
b 0.0049321647 0.017622711 0.03169773 0.037498634 0.013503159 0.045591094 -0.024789257 0.08186206 -0.022543494 -0.07523628 -0.09060338 0.07077138 0.054075673 -0.0309218 -0.010010923 -0.06362996
